svm_type epsilon_svr
kernel_type rbf
gamma 0.1111111111111111
nr_class 2
total_sv 1076
rho -28.342475822077866
SV
-1.0 4:7.0 5:19.0 6:31.0 7:43.0 8:45.0 9:49.0 
1.0 4:2.0 5:3.0 6:17.0 7:18.0 8:19.0 9:46.0 
0.43602541260493016 4:3.0 5:17.0 6:22.0 7:25.0 8:40.0 9:46.0 
-1.0 4:20.0 5:33.0 6:36.0 7:45.0 8:46.0 9:47.0 
1.0 4:9.0 5:12.0 6:14.0 7:19.0 8:31.0 9:43.0 
-0.7033930709885233 4:11.0 5:13.0 6:18.0 7:20.0 8:24.0 9:29.0 
-1.0 4:12.0 5:24.0 6:32.0 7:36.0 8:39.0 9:47.0 
1.0 4:4.0 5:6.0 6:15.0 7:22.0 8:23.0 9:27.0 
-1.0 4:16.0 5:30.0 6:36.0 7:39.0 8:45.0 9:47.0 
-1.0 4:8.0 5:21.0 6:24.0 7:26.0 8:34.0 9:38.0 
-1.0 4:5.0 5:13.0 6:16.0 7:20.0 8:28.0 9:31.0 
1.0 4:1.0 5:10.0 6:26.0 7:29.0 8:40.0 9:45.0 
-1.0 4:21.0 5:24.0 6:30.0 7:32.0 8:40.0 9:41.0 
0.660517345701335 4:5.0 5:16.0 6:24.0 7:26.0 8:46.0 9:48.0 
-1.0 4:1.0 5:11.0 6:12.0 7:15.0 8:32.0 9:46.0 
-1.0 4:14.0 5:35.0 6:37.0 7:44.0 8:46.0 9:48.0 
-1.0 4:24.0 5:29.0 6:30.0 7:31.0 8:34.0 9:46.0 
1.0 4:1.0 5:4.0 6:20.0 7:21.0 8:26.0 9:43.0 
-1.0 4:12.0 5:13.0 6:17.0 7:26.0 8:43.0 9:45.0 
-1.0 4:7.0 5:23.0 6:24.0 7:27.0 8:41.0 9:42.0 
1.0 4:4.0 5:10.0 6:28.0 7:29.0 8:30.0 9:46.0 
-1.0 4:4.0 5:22.0 6:30.0 7:39.0 8:46.0 9:47.0 
-1.0 4:1.0 5:33.0 6:40.0 7:41.0 8:45.0 9:48.0 
1.0 4:4.0 5:6.0 6:15.0 7:22.0 8:27.0 9:40.0 
1.0 4:1.0 5:7.0 6:8.0 7:10.0 8:18.0 9:36.0 
-1.0 4:2.0 5:21.0 6:31.0 7:32.0 8:41.0 9:49.0 
-1.0 4:1.0 5:11.0 6:14.0 7:20.0 8:31.0 9:40.0 
-1.0 4:4.0 5:26.0 6:30.0 7:31.0 8:48.0 9:49.0 
-1.0 4:7.0 5:19.0 6:32.0 7:35.0 8:36.0 9:43.0 
-1.0 4:10.0 5:18.0 6:23.0 7:26.0 8:41.0 9:43.0 
-1.0 4:19.0 5:21.0 6:24.0 7:25.0 8:45.0 9:46.0 
-0.9037579526529244 4:6.0 5:13.0 6:17.0 7:19.0 8:24.0 9:29.0 
1.0 4:4.0 5:8.0 6:25.0 7:29.0 8:36.0 9:37.0 
-1.0 4:3.0 5:21.0 6:31.0 7:40.0 8:43.0 9:49.0 
1.0 4:6.0 5:7.0 6:9.0 7:11.0 8:30.0 9:43.0 
1.0 4:3.0 5:12.0 6:23.0 7:30.0 8:36.0 9:37.0 
0.6488574915722399 4:4.0 5:16.0 6:18.0 7:28.0 8:30.0 9:38.0 
-1.0 4:13.0 5:29.0 6:31.0 7:36.0 8:37.0 9:42.0 
1.0 4:3.0 5:4.0 6:13.0 7:21.0 8:27.0 9:29.0 
-1.0 4:28.0 5:30.0 6:31.0 7:37.0 8:39.0 9:46.0 
0.5782019965423054 4:9.0 5:16.0 6:22.0 7:23.0 8:33.0 9:45.0 
-1.0 4:17.0 5:19.0 6:23.0 7:24.0 8:28.0 9:38.0 
1.0 4:1.0 5:2.0 6:21.0 7:30.0 8:31.0 9:38.0 
1.0 4:2.0 5:4.0 6:5.0 7:44.0 8:46.0 9:47.0 
-1.0 4:10.0 5:26.0 6:37.0 7:40.0 8:42.0 9:47.0 
1.0 4:1.0 5:3.0 6:15.0 7:16.0 8:22.0 9:39.0 
-1.0 4:7.0 5:11.0 6:15.0 7:39.0 8:42.0 9:48.0 
-1.0 4:13.0 5:30.0 6:32.0 7:33.0 8:42.0 9:46.0 
-0.22509002692816438 4:15.0 5:17.0 6:20.0 7:21.0 8:44.0 9:47.0 
1.0 4:10.0 5:12.0 6:14.0 7:27.0 8:34.0 9:36.0 
1.0 4:4.0 5:9.0 6:14.0 7:27.0 8:35.0 9:48.0 
-1.0 4:20.0 5:26.0 6:29.0 7:31.0 8:40.0 9:49.0 
-1.0 4:16.0 5:23.0 6:33.0 7:35.0 8:43.0 9:49.0 
-1.0 4:6.0 5:15.0 6:22.0 7:30.0 8:31.0 9:48.0 
1.0 4:1.0 5:3.0 6:11.0 7:40.0 8:42.0 9:48.0 
1.0 4:2.0 5:3.0 6:13.0 7:14.0 8:31.0 9:36.0 
1.0 4:1.0 5:8.0 6:13.0 7:24.0 8:27.0 9:43.0 
-1.0 4:29.0 5:30.0 6:33.0 7:34.0 8:37.0 9:46.0 
-1.0 4:18.0 5:26.0 6:29.0 7:39.0 8:43.0 9:45.0 
-1.0 4:10.0 5:18.0 6:19.0 7:37.0 8:43.0 9:48.0 
1.0 4:1.0 5:6.0 6:16.0 7:34.0 8:37.0 9:41.0 
1.0 4:2.0 5:9.0 6:19.0 7:33.0 8:35.0 9:45.0 
1.0 4:4.0 5:6.0 6:7.0 7:17.0 8:31.0 9:36.0 
-1.0 4:13.0 5:24.0 6:30.0 7:41.0 8:43.0 9:47.0 
-1.0 4:28.0 5:30.0 6:38.0 7:44.0 8:45.0 9:48.0 
-0.23520134869660753 4:15.0 5:17.0 6:19.0 7:20.0 8:35.0 9:38.0 
-1.0 4:12.0 5:15.0 6:30.0 7:38.0 8:47.0 9:48.0 
-1.0 4:4.0 5:23.0 6:26.0 7:35.0 8:36.0 9:40.0 
-1.0 4:16.0 5:24.0 6:26.0 7:30.0 8:39.0 9:42.0 
-1.0 4:5.0 5:11.0 6:25.0 7:28.0 8:35.0 9:49.0 
1.0 4:2.0 5:9.0 6:40.0 7:43.0 8:47.0 9:48.0 
-0.12395187861627299 4:11.0 5:17.0 6:35.0 7:38.0 8:43.0 9:47.0 
-1.0 4:4.0 5:13.0 6:16.0 7:32.0 8:35.0 9:37.0 
-1.0 4:6.0 5:11.0 6:21.0 7:37.0 8:40.0 9:46.0 
0.6881028667441866 4:10.0 5:16.0 6:17.0 7:34.0 8:40.0 9:47.0 
1.0 4:1.0 5:2.0 6:30.0 7:36.0 8:42.0 9:43.0 
-1.0 4:3.0 5:15.0 6:18.0 7:19.0 8:32.0 9:48.0 
-0.9387723664231268 4:1.0 5:13.0 6:21.0 7:34.0 8:36.0 9:42.0 
1.0 4:1.0 5:8.0 6:27.0 7:33.0 8:34.0 9:42.0 
1.0 4:2.0 5:5.0 6:18.0 7:21.0 8:34.0 9:43.0 
1.0 4:8.0 5:10.0 6:33.0 7:41.0 8:42.0 9:45.0 
1.0 4:8.0 5:9.0 6:13.0 7:17.0 8:34.0 9:44.0 
-1.0 4:4.0 5:24.0 6:26.0 7:37.0 8:41.0 9:43.0 
1.0 4:2.0 5:6.0 6:7.0 7:13.0 8:31.0 9:36.0 
-1.0 4:10.0 5:15.0 6:21.0 7:23.0 8:28.0 9:37.0 
1.0 4:5.0 5:12.0 6:16.0 7:26.0 8:37.0 9:43.0 
1.0 4:4.0 5:5.0 6:17.0 7:18.0 8:34.0 9:38.0 
0.6458743763919594 4:12.0 5:16.0 6:27.0 7:35.0 8:39.0 9:41.0 
1.0 4:5.0 5:8.0 6:10.0 7:32.0 8:48.0 9:49.0 
1.0 4:4.0 5:12.0 6:22.0 7:37.0 8:43.0 9:49.0 
0.6189591578290469 4:3.0 5:16.0 6:19.0 7:22.0 8:23.0 9:25.0 
1.0 4:6.0 5:12.0 6:20.0 7:21.0 8:24.0 9:43.0 
1.0 4:4.0 5:10.0 6:11.0 7:18.0 8:23.0 9:34.0 
1.0 4:6.0 5:7.0 6:8.0 7:30.0 8:34.0 9:43.0 
1.0 4:8.0 5:10.0 6:18.0 7:19.0 8:25.0 9:41.0 
1.0 4:2.0 5:9.0 6:12.0 7:30.0 8:35.0 9:46.0 
1.0 4:1.0 5:14.0 6:32.0 7:33.0 8:37.0 9:40.0 
-1.0 4:2.0 5:19.0 6:27.0 7:32.0 8:41.0 9:43.0 
1.0 4:7.0 5:10.0 6:24.0 7:27.0 8:30.0 9:47.0 
1.0 4:4.0 5:12.0 6:24.0 7:25.0 8:38.0 9:41.0 
1.0 4:7.0 5:8.0 6:24.0 7:28.0 8:29.0 9:40.0 
1.0 4:7.0 5:10.0 6:11.0 7:47.0 8:48.0 9:49.0 
1.0 4:11.0 5:12.0 6:23.0 7:29.0 8:30.0 9:40.0 
-1.0 4:2.0 5:11.0 6:16.0 7:31.0 8:33.0 9:41.0 
1.0 4:8.0 5:9.0 6:12.0 7:20.0 8:45.0 9:48.0 
-1.0 4:18.0 5:19.0 6:23.0 7:29.0 8:33.0 9:45.0 
1.0 4:9.0 5:14.0 6:17.0 7:22.0 8:26.0 9:46.0 
-1.0 4:10.0 5:11.0 6:18.0 7:21.0 8:32.0 9:42.0 
-1.0 4:12.0 5:19.0 6:23.0 7:24.0 8:29.0 9:44.0 
-1.0 4:6.0 5:26.0 6:28.0 7:30.0 8:33.0 9:34.0 
1.0 4:9.0 5:10.0 6:16.0 7:18.0 8:20.0 9:49.0 
-1.0 4:5.0 5:11.0 6:20.0 7:23.0 8:27.0 9:28.0 
1.0 4:2.0 5:5.0 6:6.0 7:12.0 8:19.0 9:36.0 
-1.0 4:1.0 5:21.0 6:23.0 7:27.0 8:40.0 9:45.0 
1.0 4:10.0 5:12.0 6:16.0 7:21.0 8:29.0 9:48.0 
1.0 4:6.0 5:12.0 6:17.0 7:28.0 8:37.0 9:46.0 
1.0 4:3.0 5:14.0 6:25.0 7:29.0 8:33.0 9:42.0 
0.8190189597681545 4:11.0 5:16.0 6:18.0 7:19.0 8:21.0 9:23.0 
1.0 4:3.0 5:8.0 6:20.0 7:22.0 8:38.0 9:49.0 
1.0 4:3.0 5:4.0 6:11.0 7:28.0 8:30.0 9:45.0 
1.0 4:7.0 5:10.0 6:13.0 7:33.0 8:39.0 9:42.0 
1.0 4:5.0 5:6.0 6:7.0 7:36.0 8:38.0 9:46.0 
1.0 4:9.0 5:10.0 6:13.0 7:30.0 8:33.0 9:39.0 
1.0 4:2.0 5:10.0 6:11.0 7:17.0 8:26.0 9:44.0 
-1.0 4:19.0 5:42.0 6:43.0 7:44.0 8:46.0 9:47.0 
-1.0 4:2.0 5:18.0 6:22.0 7:38.0 8:39.0 9:44.0 
1.0 4:5.0 5:7.0 6:23.0 7:25.0 8:31.0 9:49.0 
1.0 4:3.0 5:8.0 6:10.0 7:23.0 8:26.0 9:28.0 
1.0 4:1.0 5:7.0 6:8.0 7:14.0 8:32.0 9:33.0 
-1.0 4:14.0 5:22.0 6:23.0 7:32.0 8:43.0 9:49.0 
1.0 4:2.0 5:7.0 6:22.0 7:27.0 8:45.0 9:48.0 
-1.0 4:12.0 5:22.0 6:25.0 7:30.0 8:33.0 9:38.0 
-1.0 4:8.0 5:19.0 6:22.0 7:30.0 8:34.0 9:47.0 
0.8287080621189892 4:10.0 5:16.0 6:21.0 7:29.0 8:38.0 9:45.0 
1.0 4:4.0 5:5.0 6:6.0 7:10.0 8:23.0 9:35.0 
-1.0 4:6.0 5:22.0 6:28.0 7:36.0 8:41.0 9:48.0 
1.0 4:4.0 5:10.0 6:16.0 7:22.0 8:39.0 9:42.0 
1.0 4:4.0 5:7.0 6:24.0 7:27.0 8:28.0 9:41.0 
1.0 4:4.0 5:14.0 6:17.0 7:23.0 8:26.0 9:38.0 
-1.0 4:3.0 5:22.0 6:25.0 7:32.0 8:36.0 9:41.0 
-1.0 4:2.0 5:32.0 6:39.0 7:42.0 8:45.0 9:46.0 
-1.0 4:1.0 5:18.0 6:30.0 7:33.0 8:36.0 9:47.0 
1.0 4:8.0 5:12.0 6:22.0 7:37.0 8:42.0 9:46.0 
1.0 4:2.0 5:3.0 6:16.0 7:37.0 8:45.0 9:49.0 
1.0 4:6.0 5:8.0 6:26.0 7:33.0 8:35.0 9:42.0 
1.0 4:2.0 5:6.0 6:18.0 7:25.0 8:30.0 9:32.0 
1.0 4:4.0 5:7.0 6:13.0 7:33.0 8:40.0 9:47.0 
-0.1675211797140465 4:15.0 5:17.0 6:24.0 7:26.0 8:34.0 9:35.0 
-1.0 4:15.0 5:20.0 6:32.0 7:39.0 8:40.0 9:47.0 
-1.0 4:4.0 5:11.0 6:21.0 7:27.0 8:38.0 9:41.0 
1.0 4:9.0 5:14.0 6:19.0 7:23.0 8:43.0 9:45.0 
1.0 4:1.0 5:12.0 6:15.0 7:16.0 8:21.0 9:35.0 
-1.0 4:5.0 5:13.0 6:15.0 7:17.0 8:24.0 9:27.0 
-1.0 4:11.0 5:15.0 6:23.0 7:34.0 8:35.0 9:36.0 
-1.0 4:1.0 5:20.0 6:31.0 7:32.0 8:45.0 9:46.0 
-1.0 4:11.0 5:19.0 6:33.0 7:35.0 8:39.0 9:40.0 
-1.0 4:3.0 5:21.0 6:25.0 7:26.0 8:31.0 9:40.0 
-1.0 4:5.0 5:11.0 6:20.0 7:30.0 8:37.0 9:43.0 
1.0 4:4.0 5:14.0 6:19.0 7:25.0 8:26.0 9:49.0 
-1.0 4:9.0 5:13.0 6:14.0 7:40.0 8:43.0 9:49.0 
-1.0 4:4.0 5:30.0 6:39.0 7:42.0 8:45.0 9:46.0 
-1.0 4:7.0 5:30.0 6:36.0 7:39.0 8:42.0 9:49.0 
1.0 4:1.0 5:14.0 6:24.0 7:30.0 8:35.0 9:45.0 
1.0 4:11.0 5:14.0 6:36.0 7:40.0 8:43.0 9:45.0 
1.0 4:1.0 5:6.0 6:8.0 7:11.0 8:23.0 9:46.0 
1.0 4:4.0 5:6.0 6:10.0 7:17.0 8:33.0 9:49.0 
-1.0 4:15.0 5:21.0 6:31.0 7:35.0 8:41.0 9:46.0 
-1.0 4:5.0 5:18.0 6:22.0 7:28.0 8:29.0 9:32.0 
-1.0 4:16.0 5:19.0 6:21.0 7:25.0 8:35.0 9:45.0 
1.0 4:2.0 5:8.0 6:12.0 7:19.0 8:23.0 9:41.0 
-1.0 4:6.0 5:18.0 6:23.0 7:37.0 8:40.0 9:45.0 
-1.0 4:4.0 5:19.0 6:24.0 7:31.0 8:35.0 9:43.0 
-1.0 4:4.0 5:13.0 6:18.0 7:19.0 8:42.0 9:43.0 
1.0 4:4.0 5:9.0 6:25.0 7:27.0 8:31.0 9:33.0 
-0.1015891704255818 4:16.0 5:17.0 6:18.0 7:23.0 8:28.0 9:33.0 
-1.0 4:10.0 5:13.0 6:31.0 7:33.0 8:34.0 9:35.0 
-1.0 4:6.0 5:21.0 6:33.0 7:42.0 8:43.0 9:46.0 
-1.0 4:5.0 5:20.0 6:28.0 7:30.0 8:41.0 9:42.0 
-1.0 4:12.0 5:35.0 6:36.0 7:43.0 8:44.0 9:45.0 
-1.0 4:11.0 5:29.0 6:35.0 7:36.0 8:44.0 9:48.0 
1.0 4:3.0 5:8.0 6:9.0 7:20.0 8:22.0 9:35.0 
1.0 4:3.0 5:5.0 6:10.0 7:21.0 8:30.0 9:37.0 
-1.0 4:9.0 5:19.0 6:22.0 7:33.0 8:37.0 9:46.0 
1.0 4:2.0 5:12.0 6:14.0 7:41.0 8:42.0 9:43.0 
0.5773550828995095 4:2.0 5:16.0 6:17.0 7:29.0 8:39.0 9:41.0 
-1.0 4:19.0 5:29.0 6:33.0 7:40.0 8:46.0 9:48.0 
-1.0 4:5.0 5:21.0 6:29.0 7:30.0 8:36.0 9:45.0 
-1.0 4:12.0 5:13.0 6:15.0 7:32.0 8:40.0 9:43.0 
-1.0 4:17.0 5:20.0 6:24.0 7:28.0 8:31.0 9:41.0 
-1.0 4:8.0 5:26.0 6:31.0 7:35.0 8:36.0 9:47.0 
1.0 4:7.0 5:9.0 6:13.0 7:23.0 8:26.0 9:47.0 
-1.0 4:9.0 5:15.0 6:22.0 7:33.0 8:38.0 9:48.0 
-1.0 4:7.0 5:28.0 6:35.0 7:40.0 8:42.0 9:48.0 
-1.0 4:11.0 5:15.0 6:18.0 7:33.0 8:42.0 9:49.0 
-0.8894277679848752 4:12.0 5:13.0 6:19.0 7:20.0 8:21.0 9:29.0 
1.0 4:2.0 5:7.0 6:15.0 7:23.0 8:25.0 9:45.0 
1.0 4:1.0 5:6.0 6:31.0 7:37.0 8:44.0 9:45.0 
1.0 4:8.0 5:12.0 6:17.0 7:23.0 8:36.0 9:38.0 
-1.0 4:17.0 5:23.0 6:24.0 7:33.0 8:35.0 9:41.0 
1.0 4:1.0 5:14.0 6:23.0 7:35.0 8:47.0 9:49.0 
1.0 4:4.0 5:6.0 6:8.0 7:12.0 8:34.0 9:38.0 
-1.0 4:10.0 5:19.0 6:20.0 7:35.0 8:36.0 9:38.0 
1.0 4:1.0 5:6.0 6:8.0 7:10.0 8:15.0 9:20.0 
1.0 4:11.0 5:14.0 6:15.0 7:29.0 8:31.0 9:47.0 
1.0 4:2.0 5:3.0 6:9.0 7:21.0 8:26.0 9:29.0 
-1.0 4:21.0 5:22.0 6:23.0 7:24.0 8:48.0 9:49.0 
-1.0 4:4.0 5:29.0 6:35.0 7:40.0 8:43.0 9:45.0 
-0.27525627112982054 4:1.0 5:17.0 6:24.0 7:29.0 8:34.0 9:46.0 
-1.0 4:6.0 5:28.0 6:30.0 7:31.0 8:34.0 9:48.0 
1.0 4:2.0 5:10.0 6:11.0 7:16.0 8:42.0 9:43.0 
-1.0 4:9.0 5:19.0 6:20.0 7:24.0 8:36.0 9:48.0 
-1.0 4:15.0 5:18.0 6:22.0 7:31.0 8:43.0 9:49.0 
-1.0 4:1.0 5:15.0 6:18.0 7:19.0 8:29.0 9:37.0 
-1.0 4:9.0 5:15.0 6:18.0 7:34.0 8:35.0 9:45.0 
1.0 4:11.0 5:14.0 6:34.0 7:40.0 8:42.0 9:43.0 
-1.0 4:8.0 5:20.0 6:21.0 7:27.0 8:36.0 9:48.0 
1.0 4:11.0 5:12.0 6:14.0 7:27.0 8:34.0 9:48.0 
-1.0 4:18.0 5:23.0 6:32.0 7:34.0 8:41.0 9:46.0 
-1.0 4:10.0 5:11.0 6:36.0 7:38.0 8:46.0 9:48.0 
1.0 4:11.0 5:14.0 6:20.0 7:25.0 8:31.0 9:36.0 
-0.05822020587664342 4:4.0 5:17.0 6:34.0 7:39.0 8:41.0 9:46.0 
-1.0 4:2.0 5:20.0 6:26.0 7:29.0 8:37.0 9:45.0 
1.0 4:3.0 5:5.0 6:19.0 7:20.0 8:34.0 9:47.0 
-1.0 4:11.0 5:19.0 6:36.0 7:41.0 8:46.0 9:49.0 
-1.0 4:2.0 5:21.0 6:22.0 7:29.0 8:34.0 9:35.0 
1.0 4:11.0 5:14.0 6:29.0 7:33.0 8:42.0 9:44.0 
-1.0 4:6.0 5:26.0 6:30.0 7:38.0 8:44.0 9:45.0 
-1.0 4:8.0 5:13.0 6:21.0 7:22.0 8:24.0 9:39.0 
1.0 4:2.0 5:6.0 6:9.0 7:20.0 8:43.0 9:44.0 
1.0 4:3.0 5:7.0 6:15.0 7:38.0 8:43.0 9:47.0 
0.7125596497460286 4:13.0 5:16.0 6:21.0 7:42.0 8:46.0 9:49.0 
-1.0 4:6.0 5:26.0 6:27.0 7:33.0 8:41.0 9:42.0 
-1.0 4:2.0 5:13.0 6:19.0 7:25.0 8:30.0 9:32.0 
-1.0 4:13.0 5:15.0 6:28.0 7:29.0 8:33.0 9:47.0 
1.0 4:3.0 5:10.0 6:21.0 7:23.0 8:33.0 9:44.0 
1.0 4:3.0 5:4.0 6:8.0 7:25.0 8:41.0 9:48.0 
1.0 4:4.0 5:7.0 6:16.0 7:23.0 8:27.0 9:39.0 
1.0 4:1.0 5:9.0 6:10.0 7:24.0 8:32.0 9:35.0 
1.0 4:1.0 5:9.0 6:15.0 7:26.0 8:29.0 9:32.0 
1.0 4:3.0 5:9.0 6:10.0 7:14.0 8:17.0 9:19.0 
1.0 4:3.0 5:8.0 6:20.0 7:26.0 8:37.0 9:46.0 
-1.0 4:13.0 5:22.0 6:31.0 7:32.0 8:34.0 9:48.0 
-1.0 4:19.0 5:30.0 6:32.0 7:33.0 8:38.0 9:41.0 
-1.0 4:5.0 5:13.0 6:14.0 7:29.0 8:39.0 9:40.0 
-1.0 4:10.0 5:30.0 6:41.0 7:43.0 8:45.0 9:47.0 
-1.0 4:6.0 5:11.0 6:19.0 7:20.0 8:32.0 9:39.0 
-1.0 4:15.0 5:23.0 6:38.0 7:40.0 8:41.0 9:49.0 
1.0 4:1.0 5:10.0 6:18.0 7:24.0 8:31.0 9:46.0 
-1.0 4:12.0 5:13.0 6:22.0 7:26.0 8:37.0 9:45.0 
-1.0 4:15.0 5:20.0 6:33.0 7:37.0 8:39.0 9:45.0 
1.0 4:8.0 5:12.0 6:24.0 7:30.0 8:34.0 9:35.0 
1.0 4:9.0 5:14.0 6:22.0 7:45.0 8:47.0 9:49.0 
-1.0 4:6.0 5:18.0 6:25.0 7:34.0 8:45.0 9:49.0 
1.0 4:2.0 5:4.0 6:25.0 7:29.0 8:41.0 9:43.0 
-1.0 4:9.0 5:33.0 6:37.0 7:38.0 8:42.0 9:49.0 
1.0 4:1.0 5:10.0 6:26.0 7:38.0 8:39.0 9:47.0 
-1.0 4:2.0 5:18.0 6:24.0 7:25.0 8:30.0 9:40.0 
-1.0 4:6.0 5:23.0 6:30.0 7:33.0 8:37.0 9:41.0 
1.0 4:3.0 5:4.0 6:20.0 7:38.0 8:42.0 9:48.0 
1.0 4:3.0 5:5.0 6:6.0 7:7.0 8:26.0 9:40.0 
1.0 4:5.0 5:8.0 6:34.0 7:37.0 8:44.0 9:47.0 
-1.0 4:1.0 5:11.0 6:22.0 7:25.0 8:39.0 9:41.0 
1.0 4:3.0 5:8.0 6:14.0 7:28.0 8:31.0 9:39.0 
-1.0 4:1.0 5:18.0 6:20.0 7:23.0 8:41.0 9:47.0 
1.0 4:5.0 5:9.0 6:14.0 7:31.0 8:37.0 9:46.0 
-1.0 4:8.0 5:32.0 6:33.0 7:43.0 8:46.0 9:49.0 
1.0 4:2.0 5:6.0 6:12.0 7:18.0 8:22.0 9:29.0 
-1.0 4:4.0 5:11.0 6:18.0 7:20.0 8:29.0 9:44.0 
-1.0 4:8.0 5:11.0 6:22.0 7:27.0 8:33.0 9:36.0 
-1.0 4:7.0 5:22.0 6:24.0 7:30.0 8:38.0 9:46.0 
1.0 4:2.0 5:9.0 6:12.0 7:29.0 8:33.0 9:37.0 
1.0 4:4.0 5:6.0 6:19.0 7:22.0 8:23.0 9:45.0 
1.0 4:4.0 5:5.0 6:12.0 7:24.0 8:38.0 9:45.0 
1.0 4:10.0 5:14.0 6:18.0 7:40.0 8:45.0 9:49.0 
1.0 4:4.0 5:14.0 6:17.0 7:20.0 8:38.0 9:48.0 
-1.0 4:19.0 5:20.0 6:33.0 7:43.0 8:45.0 9:47.0 
0.7581346675968393 4:9.0 5:16.0 6:19.0 7:41.0 8:46.0 9:49.0 
1.0 4:1.0 5:2.0 6:3.0 7:19.0 8:25.0 9:41.0 
1.0 4:5.0 5:7.0 6:9.0 7:30.0 8:39.0 9:40.0 
-1.0 4:24.0 5:40.0 6:45.0 7:47.0 8:48.0 9:49.0 
-1.0 4:6.0 5:11.0 6:20.0 7:26.0 8:34.0 9:35.0 
1.0 4:6.0 5:9.0 6:17.0 7:20.0 8:22.0 9:40.0 
1.0 4:2.0 5:6.0 6:9.0 7:11.0 8:14.0 9:37.0 
1.0 4:4.0 5:8.0 6:11.0 7:27.0 8:37.0 9:47.0 
-1.0 4:8.0 5:13.0 6:23.0 7:37.0 8:41.0 9:42.0 
-1.0 4:10.0 5:24.0 6:35.0 7:40.0 8:41.0 9:45.0 
-1.0 4:13.0 5:20.0 6:31.0 7:36.0 8:43.0 9:46.0 
1.0 4:5.0 5:6.0 6:17.0 7:21.0 8:31.0 9:46.0 
0.4379906165858263 4:4.0 5:6.0 6:15.0 7:33.0 8:38.0 9:40.0 
1.0 4:3.0 5:6.0 6:12.0 7:15.0 8:43.0 9:44.0 
-1.0 4:3.0 5:21.0 6:27.0 7:37.0 8:43.0 9:44.0 
1.0 4:7.0 5:9.0 6:21.0 7:29.0 8:31.0 9:47.0 
-1.0 4:9.0 5:18.0 6:28.0 7:37.0 8:42.0 9:49.0 
-1.0 4:12.0 5:19.0 6:22.0 7:34.0 8:46.0 9:47.0 
-1.0 4:13.0 5:21.0 6:23.0 7:27.0 8:28.0 9:34.0 
1.0 4:3.0 5:7.0 6:26.0 7:30.0 8:33.0 9:46.0 
-1.0 4:1.0 5:13.0 6:19.0 7:26.0 8:32.0 9:46.0 
-1.0 4:7.0 5:20.0 6:24.0 7:25.0 8:29.0 9:45.0 
1.0 4:4.0 5:9.0 6:16.0 7:32.0 8:37.0 9:41.0 
1.0 4:5.0 5:16.0 6:21.0 7:25.0 8:40.0 9:48.0 
1.0 4:10.0 5:12.0 6:23.0 7:26.0 8:35.0 9:37.0 
1.0 4:6.0 5:10.0 6:21.0 7:24.0 8:38.0 9:48.0 
-1.0 4:6.0 5:15.0 6:22.0 7:26.0 8:41.0 9:49.0 
-1.0 4:14.0 5:22.0 6:25.0 7:30.0 8:44.0 9:48.0 
-1.0 4:17.0 5:29.0 6:33.0 7:43.0 8:45.0 9:49.0 
0.9691215438936531 4:3.0 5:6.0 6:12.0 7:19.0 8:24.0 9:29.0 
-1.0 4:3.0 5:19.0 6:20.0 7:23.0 8:35.0 9:38.0 
-1.0 4:22.0 5:24.0 6:32.0 7:33.0 8:37.0 9:41.0 
-1.0 4:1.0 5:23.0 6:26.0 7:28.0 8:33.0 9:40.0 
-0.028778460983504003 4:11.0 5:17.0 6:27.0 7:32.0 8:39.0 9:49.0 
1.0 4:5.0 5:7.0 6:13.0 7:27.0 8:45.0 9:47.0 
1.0 4:11.0 5:14.0 6:31.0 7:33.0 8:37.0 9:45.0 
0.6497435927143217 4:8.0 5:16.0 6:33.0 7:37.0 8:40.0 9:42.0 
-1.0 4:4.0 5:13.0 6:19.0 7:23.0 8:33.0 9:48.0 
0.6226386696212179 4:3.0 5:16.0 6:20.0 7:27.0 8:34.0 9:35.0 
0.9364034647566731 4:8.0 5:16.0 6:19.0 7:32.0 8:40.0 9:46.0 
-1.0 4:2.0 5:11.0 6:24.0 7:31.0 8:39.0 9:49.0 
-1.0 4:10.0 5:20.0 6:25.0 7:41.0 8:44.0 9:46.0 
1.0 4:2.0 5:10.0 6:19.0 7:36.0 8:40.0 9:48.0 
-1.0 4:3.0 5:15.0 6:31.0 7:33.0 8:43.0 9:48.0 
1.0 4:4.0 5:7.0 6:13.0 7:41.0 8:44.0 9:47.0 
-1.0 4:7.0 5:20.0 6:24.0 7:37.0 8:43.0 9:49.0 
1.0 4:7.0 5:14.0 6:17.0 7:19.0 8:34.0 9:37.0 
1.0 4:6.0 5:12.0 6:25.0 7:43.0 8:45.0 9:47.0 
-1.0 4:20.0 5:25.0 6:26.0 7:39.0 8:42.0 9:44.0 
-1.0 4:10.0 5:19.0 6:25.0 7:31.0 8:37.0 9:40.0 
1.0 4:4.0 5:14.0 6:21.0 7:29.0 8:36.0 9:41.0 
1.0 4:2.0 5:3.0 6:18.0 7:31.0 8:38.0 9:46.0 
1.0 4:9.0 5:10.0 6:22.0 7:29.0 8:38.0 9:41.0 
-1.0 4:8.0 5:11.0 6:12.0 7:18.0 8:40.0 9:42.0 
1.0 4:1.0 5:5.0 6:17.0 7:32.0 8:39.0 9:45.0 
-1.0 4:7.0 5:21.0 6:23.0 7:37.0 8:43.0 9:48.0 
-0.22026618552383678 4:9.0 5:17.0 6:18.0 7:20.0 8:41.0 9:49.0 
-1.0 4:2.0 5:15.0 6:28.0 7:41.0 8:42.0 9:46.0 
1.0 4:3.0 5:16.0 6:22.0 7:27.0 8:28.0 9:32.0 
1.0 4:2.0 5:12.0 6:32.0 7:34.0 8:38.0 9:48.0 
1.0 4:2.0 5:7.0 6:18.0 7:32.0 8:36.0 9:43.0 
-1.0 4:9.0 5:19.0 6:31.0 7:35.0 8:39.0 9:42.0 
-1.0 4:7.0 5:21.0 6:22.0 7:24.0 8:30.0 9:31.0 
-0.0487095036891054 4:11.0 5:17.0 6:18.0 7:28.0 8:31.0 9:46.0 
-1.0 4:17.0 5:18.0 6:20.0 7:22.0 8:25.0 9:36.0 
1.0 4:3.0 5:8.0 6:16.0 7:20.0 8:24.0 9:25.0 
-1.0 4:10.0 5:11.0 6:16.0 7:21.0 8:24.0 9:38.0 
-1.0 4:9.0 5:39.0 6:40.0 7:43.0 8:46.0 9:48.0 
1.0 4:5.0 5:8.0 6:12.0 7:15.0 8:39.0 9:47.0 
-1.0 4:21.0 5:25.0 6:32.0 7:35.0 8:40.0 9:47.0 
-1.0 4:9.0 5:19.0 6:26.0 7:29.0 8:39.0 9:45.0 
-0.05337132526280719 4:3.0 5:17.0 6:18.0 7:24.0 8:31.0 9:32.0 
-1.0 4:5.0 5:15.0 6:30.0 7:35.0 8:41.0 9:48.0 
-1.0 4:1.0 5:26.0 6:30.0 7:32.0 8:39.0 9:47.0 
-1.0 4:12.0 5:24.0 6:33.0 7:36.0 8:39.0 9:45.0 
1.0 4:8.0 5:9.0 6:31.0 7:42.0 8:45.0 9:49.0 
-1.0 4:12.0 5:13.0 6:17.0 7:34.0 8:40.0 9:47.0 
1.0 4:2.0 5:8.0 6:23.0 7:25.0 8:33.0 9:48.0 
-1.0 4:8.0 5:23.0 6:33.0 7:40.0 8:46.0 9:49.0 
1.0 4:4.0 5:12.0 6:24.0 7:25.0 8:37.0 9:49.0 
-1.0 4:3.0 5:13.0 6:14.0 7:17.0 8:20.0 9:42.0 
-1.0 4:3.0 5:15.0 6:24.0 7:25.0 8:40.0 9:44.0 
-0.17222694034107913 4:14.0 5:17.0 6:27.0 7:41.0 8:47.0 9:48.0 
1.0 4:2.0 5:10.0 6:13.0 7:15.0 8:28.0 9:41.0 
1.0 4:1.0 5:10.0 6:25.0 7:27.0 8:30.0 9:36.0 
-1.0 4:7.0 5:13.0 6:27.0 7:37.0 8:40.0 9:46.0 
-1.0 4:16.0 5:21.0 6:31.0 7:40.0 8:43.0 9:45.0 
1.0 4:1.0 5:2.0 6:23.0 7:29.0 8:30.0 9:42.0 
1.0 4:2.0 5:9.0 6:11.0 7:22.0 8:35.0 9:45.0 
-1.0 4:6.0 5:24.0 6:31.0 7:32.0 8:34.0 9:39.0 
-1.0 4:3.0 5:11.0 6:32.0 7:34.0 8:44.0 9:48.0 
1.0 4:6.0 5:9.0 6:15.0 7:32.0 8:37.0 9:48.0 
0.5303675693900208 4:8.0 5:17.0 6:30.0 7:36.0 8:40.0 9:47.0 
1.0 4:8.0 5:10.0 6:12.0 7:14.0 8:31.0 9:39.0 
-1.0 4:7.0 5:13.0 6:16.0 7:24.0 8:35.0 9:42.0 
1.0 4:4.0 5:6.0 6:7.0 7:16.0 8:32.0 9:45.0 
-1.0 4:3.0 5:22.0 6:25.0 7:36.0 8:39.0 9:40.0 
-1.0 4:5.0 5:22.0 6:25.0 7:30.0 8:45.0 9:46.0 
1.0 4:3.0 5:10.0 6:32.0 7:43.0 8:44.0 9:46.0 
-1.0 4:7.0 5:15.0 6:34.0 7:39.0 8:41.0 9:49.0 
-1.0 4:13.0 5:18.0 6:22.0 7:29.0 8:37.0 9:49.0 
1.0 4:6.0 5:10.0 6:13.0 7:20.0 8:32.0 9:37.0 
1.0 4:1.0 5:5.0 6:11.0 7:37.0 8:44.0 9:47.0 
-1.0 4:1.0 5:20.0 6:21.0 7:23.0 8:40.0 9:41.0 
-1.0 4:7.0 5:11.0 6:13.0 7:34.0 8:46.0 9:47.0 
1.0 4:2.0 5:4.0 6:11.0 7:30.0 8:34.0 9:47.0 
0.47274726276705714 4:3.0 5:17.0 6:26.0 7:33.0 8:39.0 9:46.0 
-1.0 4:14.0 5:24.0 6:26.0 7:29.0 8:41.0 9:46.0 
-1.0 4:19.0 5:29.0 6:33.0 7:35.0 8:44.0 9:49.0 
1.0 4:1.0 5:6.0 6:8.0 7:38.0 8:39.0 9:40.0 
1.0 4:2.0 5:4.0 6:17.0 7:33.0 8:36.0 9:45.0 
1.0 4:3.0 5:7.0 6:9.0 7:28.0 8:31.0 9:43.0 
-1.0 4:17.0 5:20.0 6:33.0 7:35.0 8:37.0 9:40.0 
1.0 4:11.0 5:12.0 6:13.0 7:16.0 8:46.0 9:48.0 
-1.0 4:3.0 5:11.0 6:22.0 7:29.0 8:41.0 9:44.0 
1.0 4:3.0 5:9.0 6:11.0 7:19.0 8:30.0 9:39.0 
-1.0 4:23.0 5:40.0 6:41.0 7:42.0 8:44.0 9:45.0 
1.0 4:5.0 5:6.0 6:10.0 7:25.0 8:36.0 9:38.0 
1.0 4:1.0 5:6.0 6:15.0 7:27.0 8:33.0 9:40.0 
1.0 4:4.0 5:7.0 6:10.0 7:12.0 8:26.0 9:33.0 
1.0 4:2.0 5:5.0 6:8.0 7:20.0 8:21.0 9:33.0 
-1.0 4:16.0 5:18.0 6:21.0 7:27.0 8:36.0 9:43.0 
-1.0 4:20.0 5:21.0 6:22.0 7:29.0 8:39.0 9:41.0 
-0.9465178404408128 4:1.0 5:13.0 6:23.0 7:35.0 8:38.0 9:42.0 
-1.0 4:5.0 5:27.0 6:30.0 7:32.0 8:46.0 9:49.0 
-1.0 4:12.0 5:24.0 6:25.0 7:29.0 8:41.0 9:45.0 
1.0 4:1.0 5:2.0 6:18.0 7:38.0 8:42.0 9:45.0 
1.0 4:3.0 5:6.0 6:19.0 7:23.0 8:39.0 9:43.0 
1.0 4:3.0 5:6.0 6:15.0 7:27.0 8:40.0 9:44.0 
-1.0 4:13.0 5:22.0 6:29.0 7:33.0 8:46.0 9:49.0 
-1.0 4:13.0 5:15.0 6:17.0 7:26.0 8:34.0 9:48.0 
-1.0 4:9.0 5:20.0 6:22.0 7:28.0 8:35.0 9:42.0 
-1.0 4:5.0 5:21.0 6:35.0 7:38.0 8:47.0 9:48.0 
1.0 4:3.0 5:4.0 6:7.0 7:19.0 8:28.0 9:32.0 
0.5229237129838943 4:3.0 5:16.0 6:22.0 7:39.0 8:42.0 9:49.0 
1.0 4:3.0 5:4.0 6:22.0 7:23.0 8:26.0 9:28.0 
1.0 4:2.0 5:9.0 6:11.0 7:22.0 8:34.0 9:35.0 
-1.0 4:5.0 5:21.0 6:25.0 7:32.0 8:33.0 9:41.0 
-1.0 4:27.0 5:29.0 6:33.0 7:36.0 8:46.0 9:48.0 
-1.0 4:2.0 5:24.0 6:33.0 7:35.0 8:44.0 9:48.0 
1.0 4:6.0 5:9.0 6:14.0 7:18.0 8:42.0 9:44.0 
1.0 4:2.0 5:12.0 6:31.0 7:40.0 8:44.0 9:45.0 
1.0 4:6.0 5:7.0 6:14.0 7:16.0 8:17.0 9:27.0 
-1.0 4:1.0 5:23.0 6:29.0 7:34.0 8:37.0 9:45.0 
0.434794973824261 4:4.0 5:16.0 6:20.0 7:23.0 8:28.0 9:44.0 
-1.0 4:12.0 5:18.0 6:19.0 7:35.0 8:42.0 9:43.0 
1.0 4:2.0 5:7.0 6:8.0 7:32.0 8:43.0 9:49.0 
-1.0 4:2.0 5:25.0 6:28.0 7:40.0 8:45.0 9:46.0 
-1.0 4:15.0 5:18.0 6:19.0 7:21.0 8:24.0 9:35.0 
1.0 4:3.0 5:10.0 6:16.0 7:17.0 8:25.0 9:39.0 
-1.0 4:10.0 5:20.0 6:28.0 7:36.0 8:40.0 9:46.0 
1.0 4:7.0 5:9.0 6:25.0 7:35.0 8:40.0 9:48.0 
0.775271500898649 4:2.0 5:6.0 6:20.0 7:23.0 8:38.0 9:45.0 
1.0 4:2.0 5:9.0 6:26.0 7:44.0 8:47.0 9:49.0 
-1.0 4:10.0 5:18.0 6:22.0 7:26.0 8:34.0 9:38.0 
-1.0 4:1.0 5:34.0 6:37.0 7:39.0 8:40.0 9:42.0 
0.8210375679074752 4:1.0 5:16.0 6:28.0 7:29.0 8:39.0 9:45.0 
1.0 4:12.0 5:16.0 6:19.0 7:32.0 8:42.0 9:49.0 
1.0 4:3.0 5:6.0 6:9.0 7:27.0 8:28.0 9:36.0 
1.0 4:3.0 5:7.0 6:13.0 7:30.0 8:38.0 9:46.0 
-1.0 4:2.0 5:26.0 6:29.0 7:36.0 8:37.0 9:45.0 
-1.0 4:5.0 5:21.0 6:28.0 7:32.0 8:43.0 9:46.0 
1.0 4:2.0 5:5.0 6:9.0 7:17.0 8:32.0 9:35.0 
-1.0 4:2.0 5:15.0 6:25.0 7:31.0 8:38.0 9:49.0 
-1.0 4:5.0 5:18.0 6:20.0 7:26.0 8:37.0 9:39.0 
1.0 4:7.0 5:9.0 6:17.0 7:23.0 8:27.0 9:32.0 
1.0 4:2.0 5:10.0 6:24.0 7:31.0 8:33.0 9:49.0 
-1.0 4:10.0 5:27.0 6:36.0 7:40.0 8:42.0 9:43.0 
-1.0 4:11.0 5:19.0 6:29.0 7:33.0 8:44.0 9:46.0 
1.0 4:2.0 5:8.0 6:22.0 7:29.0 8:34.0 9:48.0 
-1.0 4:12.0 5:19.0 6:23.0 7:25.0 8:36.0 9:46.0 
-0.9338709858709785 4:4.0 5:13.0 6:19.0 7:32.0 8:40.0 9:45.0 
1.0 4:7.0 5:8.0 6:23.0 7:38.0 8:39.0 9:45.0 
1.0 4:7.0 5:9.0 6:15.0 7:21.0 8:38.0 9:40.0 
-1.0 4:11.0 5:13.0 6:26.0 7:32.0 8:34.0 9:44.0 
1.0 4:8.0 5:9.0 6:12.0 7:20.0 8:42.0 9:45.0 
1.0 4:4.0 5:9.0 6:25.0 7:26.0 8:41.0 9:46.0 
1.0 4:1.0 5:3.0 6:26.0 7:33.0 8:42.0 9:46.0 
-1.0 4:18.0 5:25.0 6:33.0 7:40.0 8:42.0 9:49.0 
-1.0 4:4.0 5:13.0 6:17.0 7:27.0 8:35.0 9:45.0 
1.0 4:2.0 5:3.0 6:19.0 7:28.0 8:36.0 9:45.0 
-1.0 4:12.0 5:30.0 6:34.0 7:38.0 8:39.0 9:43.0 
1.0 4:8.0 5:9.0 6:12.0 7:16.0 8:19.0 9:21.0 
-1.0 4:24.0 5:28.0 6:34.0 7:38.0 8:44.0 9:45.0 
-1.0 4:9.0 5:21.0 6:28.0 7:37.0 8:44.0 9:49.0 
-1.0 4:11.0 5:33.0 6:34.0 7:42.0 8:43.0 9:48.0 
1.0 4:9.0 5:12.0 6:16.0 7:26.0 8:30.0 9:37.0 
1.0 4:2.0 5:8.0 6:12.0 7:22.0 8:36.0 9:37.0 
1.0 4:4.0 5:8.0 6:29.0 7:37.0 8:40.0 9:48.0 
1.0 4:6.0 5:12.0 6:18.0 7:27.0 8:42.0 9:43.0 
-1.0 4:4.0 5:15.0 6:34.0 7:36.0 8:43.0 9:47.0 
-1.0 4:11.0 5:18.0 6:22.0 7:28.0 8:30.0 9:49.0 
1.0 4:4.0 5:7.0 6:8.0 7:10.0 8:47.0 9:48.0 
1.0 4:11.0 5:12.0 6:29.0 7:32.0 8:35.0 9:43.0 
1.0 4:6.0 5:10.0 6:20.0 7:23.0 8:45.0 9:47.0 
1.0 4:5.0 5:7.0 6:23.0 7:33.0 8:37.0 9:38.0 
-1.0 4:10.0 5:13.0 6:19.0 7:35.0 8:39.0 9:41.0 
-0.10281219210853187 4:11.0 5:17.0 6:18.0 7:25.0 8:27.0 9:34.0 
-1.0 4:20.0 5:35.0 6:36.0 7:37.0 8:39.0 9:49.0 
1.0 4:8.0 5:12.0 6:20.0 7:28.0 8:39.0 9:47.0 
-1.0 4:8.0 5:32.0 6:34.0 7:39.0 8:43.0 9:48.0 
-1.0 4:9.0 5:13.0 6:20.0 7:29.0 8:45.0 9:46.0 
1.0 4:1.0 5:6.0 6:20.0 7:22.0 8:24.0 9:46.0 
-1.0 4:14.0 5:15.0 6:20.0 7:28.0 8:34.0 9:39.0 
0.7318647460104243 4:15.0 5:16.0 6:22.0 7:31.0 8:43.0 9:44.0 
-1.0 4:14.0 5:20.0 6:24.0 7:30.0 8:34.0 9:37.0 
1.0 4:1.0 5:6.0 6:17.0 7:19.0 8:41.0 9:42.0 
-1.0 4:16.0 5:25.0 6:29.0 7:37.0 8:45.0 9:49.0 
-1.0 4:11.0 5:20.0 6:33.0 7:34.0 8:37.0 9:39.0 
-1.0 4:5.0 5:11.0 6:26.0 7:31.0 8:36.0 9:39.0 
1.0 4:2.0 5:8.0 6:26.0 7:46.0 8:48.0 9:49.0 
-1.0 4:7.0 5:15.0 6:23.0 7:25.0 8:27.0 9:40.0 
1.0 4:8.0 5:12.0 6:14.0 7:22.0 8:29.0 9:49.0 
-1.0 4:2.0 5:18.0 6:20.0 7:23.0 8:24.0 9:48.0 
-1.0 4:11.0 5:27.0 6:29.0 7:33.0 8:34.0 9:44.0 
-1.0 4:14.0 5:19.0 6:34.0 7:37.0 8:39.0 9:42.0 
1.0 4:9.0 5:16.0 6:34.0 7:42.0 8:44.0 9:48.0 
1.0 4:6.0 5:10.0 6:33.0 7:39.0 8:40.0 9:48.0 
1.0 4:4.0 5:6.0 6:24.0 7:32.0 8:46.0 9:48.0 
-1.0 4:17.0 5:20.0 6:22.0 7:37.0 8:40.0 9:48.0 
1.0 4:2.0 5:5.0 6:13.0 7:24.0 8:35.0 9:43.0 
1.0 4:5.0 5:6.0 6:7.0 7:11.0 8:17.0 9:34.0 
-1.0 4:6.0 5:13.0 6:23.0 7:34.0 8:41.0 9:43.0 
1.0 4:4.0 5:5.0 6:21.0 7:33.0 8:42.0 9:47.0 
1.0 4:10.0 5:12.0 6:21.0 7:38.0 8:41.0 9:42.0 
-1.0 4:1.0 5:11.0 6:17.0 7:29.0 8:31.0 9:46.0 
-1.0 4:8.0 5:20.0 6:22.0 7:29.0 8:33.0 9:49.0 
-1.0 4:8.0 5:15.0 6:17.0 7:22.0 8:30.0 9:40.0 
1.0 4:1.0 5:4.0 6:9.0 7:20.0 8:30.0 9:44.0 
-1.0 4:14.0 5:19.0 6:23.0 7:31.0 8:34.0 9:39.0 
1.0 4:6.0 5:10.0 6:24.0 7:28.0 8:31.0 9:46.0 
-1.0 4:4.0 5:22.0 6:26.0 7:29.0 8:39.0 9:48.0 
1.0 4:7.0 5:8.0 6:15.0 7:24.0 8:27.0 9:32.0 
1.0 4:3.0 5:4.0 6:24.0 7:26.0 8:29.0 9:49.0 
1.0 4:1.0 5:7.0 6:19.0 7:21.0 8:39.0 9:45.0 
1.0 4:5.0 5:6.0 6:14.0 7:30.0 8:38.0 9:39.0 
-1.0 4:9.0 5:27.0 6:28.0 7:40.0 8:45.0 9:48.0 
-1.0 4:1.0 5:15.0 6:20.0 7:30.0 8:41.0 9:48.0 
1.0 4:4.0 5:5.0 6:19.0 7:28.0 8:31.0 9:38.0 
-1.0 4:13.0 5:19.0 6:23.0 7:33.0 8:38.0 9:48.0 
-1.0 4:5.0 5:15.0 6:28.0 7:31.0 8:32.0 9:45.0 
1.0 4:2.0 5:5.0 6:19.0 7:26.0 8:29.0 9:31.0 
1.0 4:1.0 5:14.0 6:23.0 7:27.0 8:32.0 9:44.0 
-1.0 4:12.0 5:32.0 6:35.0 7:36.0 8:37.0 9:46.0 
-1.0 4:9.0 5:11.0 6:18.0 7:23.0 8:29.0 9:40.0 
1.0 4:3.0 5:5.0 6:16.0 7:26.0 8:40.0 9:45.0 
1.0 4:2.0 5:4.0 6:15.0 7:39.0 8:45.0 9:49.0 
1.0 4:8.0 5:14.0 6:24.0 7:36.0 8:40.0 9:42.0 
-1.0 4:10.0 5:19.0 6:29.0 7:32.0 8:38.0 9:44.0 
-1.0 4:3.0 5:23.0 6:29.0 7:37.0 8:44.0 9:45.0 
1.0 4:13.0 5:14.0 6:24.0 7:31.0 8:40.0 9:48.0 
1.0 4:2.0 5:5.0 6:12.0 7:31.0 8:34.0 9:48.0 
-1.0 4:11.0 5:22.0 6:31.0 7:32.0 8:40.0 9:49.0 
1.0 4:7.0 5:10.0 6:31.0 7:32.0 8:42.0 9:47.0 
0.4409625474816334 4:5.0 5:6.0 6:15.0 7:31.0 8:38.0 9:39.0 
1.0 4:5.0 5:6.0 6:22.0 7:23.0 8:25.0 9:27.0 
-1.0 4:15.0 5:19.0 6:23.0 7:38.0 8:43.0 9:49.0 
1.0 4:4.0 5:6.0 6:9.0 7:29.0 8:33.0 9:49.0 
1.0 4:9.0 5:10.0 6:26.0 7:29.0 8:32.0 9:37.0 
1.0 4:4.0 5:6.0 6:9.0 7:30.0 8:33.0 9:49.0 
1.0 4:3.0 5:6.0 6:17.0 7:27.0 8:28.0 9:44.0 
1.0 4:3.0 5:12.0 6:13.0 7:36.0 8:46.0 9:48.0 
-0.010205824685240075 4:6.0 5:17.0 6:36.0 7:41.0 8:42.0 9:49.0 
1.0 4:1.0 5:7.0 6:23.0 7:29.0 8:30.0 9:33.0 
1.0 4:4.0 5:8.0 6:11.0 7:12.0 8:34.0 9:43.0 
1.0 4:5.0 5:6.0 6:14.0 7:18.0 8:30.0 9:35.0 
1.0 4:4.0 5:10.0 6:29.0 7:33.0 8:39.0 9:46.0 
-1.0 4:14.0 5:19.0 6:27.0 7:32.0 8:45.0 9:49.0 
1.0 4:2.0 5:4.0 6:12.0 7:24.0 8:36.0 9:38.0 
-1.0 4:5.0 5:11.0 6:12.0 7:22.0 8:23.0 9:26.0 
-0.042789168600833705 4:4.0 5:17.0 6:19.0 7:22.0 8:24.0 9:46.0 
0.13962553911995226 4:8.0 5:17.0 6:24.0 7:34.0 8:42.0 9:46.0 
-1.0 4:2.0 5:11.0 6:29.0 7:32.0 8:48.0 9:49.0 
-1.0 4:5.0 5:13.0 6:25.0 7:34.0 8:36.0 9:46.0 
-1.0 4:18.0 5:26.0 6:32.0 7:34.0 8:43.0 9:44.0 
-1.0 4:5.0 5:24.0 6:31.0 7:34.0 8:35.0 9:44.0 
1.0 4:2.0 5:7.0 6:8.0 7:18.0 8:20.0 9:37.0 
-1.0 4:12.0 5:15.0 6:18.0 7:25.0 8:29.0 9:32.0 
-1.0 4:1.0 5:19.0 6:23.0 7:24.0 8:25.0 9:43.0 
1.0 4:1.0 5:9.0 6:19.0 7:25.0 8:31.0 9:41.0 
1.0 4:2.0 5:4.0 6:13.0 7:24.0 8:30.0 9:42.0 
-1.0 4:18.0 5:25.0 6:35.0 7:43.0 8:46.0 9:47.0 
1.0 4:5.0 5:10.0 6:16.0 7:19.0 8:33.0 9:47.0 
-1.0 4:17.0 5:26.0 6:27.0 7:28.0 8:33.0 9:49.0 
1.0 4:2.0 5:4.0 6:24.0 7:25.0 8:47.0 9:48.0 
1.0 4:8.0 5:10.0 6:14.0 7:22.0 8:28.0 9:29.0 
-1.0 4:1.0 5:15.0 6:17.0 7:26.0 8:28.0 9:38.0 
-1.0 4:16.0 5:20.0 6:26.0 7:31.0 8:38.0 9:49.0 
-1.0 4:4.0 5:22.0 6:23.0 7:46.0 8:48.0 9:49.0 
-1.0 4:12.0 5:15.0 6:19.0 7:41.0 8:42.0 9:49.0 
1.0 4:1.0 5:5.0 6:9.0 7:11.0 8:22.0 9:38.0 
1.0 4:5.0 5:14.0 6:34.0 7:38.0 8:40.0 9:43.0 
1.0 4:5.0 5:9.0 6:23.0 7:30.0 8:34.0 9:36.0 
-1.0 4:16.0 5:22.0 6:25.0 7:33.0 8:39.0 9:48.0 
1.0 4:10.0 5:12.0 6:15.0 7:23.0 8:26.0 9:44.0 
1.0 4:7.0 5:9.0 6:10.0 7:27.0 8:28.0 9:40.0 
-1.0 4:26.0 5:28.0 6:30.0 7:39.0 8:40.0 9:48.0 
-1.0 4:12.0 5:21.0 6:25.0 7:30.0 8:41.0 9:43.0 
-1.0 4:29.0 5:35.0 6:36.0 7:38.0 8:41.0 9:43.0 
-0.16721648197509326 4:14.0 5:17.0 6:19.0 7:21.0 8:40.0 9:42.0 
-1.0 4:2.0 5:31.0 6:32.0 7:34.0 8:40.0 9:49.0 
-1.0 4:9.0 5:24.0 6:29.0 7:35.0 8:37.0 9:40.0 
1.0 4:4.0 5:12.0 6:14.0 7:15.0 8:21.0 9:23.0 
-1.0 4:13.0 5:24.0 6:30.0 7:32.0 8:37.0 9:48.0 
1.0 4:1.0 5:9.0 6:23.0 7:28.0 8:37.0 9:39.0 
0.9720950390552492 4:14.0 5:16.0 6:34.0 7:41.0 8:45.0 9:49.0 
-1.0 4:13.0 5:15.0 6:18.0 7:20.0 8:23.0 9:26.0 
-1.0 4:4.0 5:13.0 6:18.0 7:21.0 8:22.0 9:42.0 
1.0 4:4.0 5:6.0 6:14.0 7:23.0 8:25.0 9:36.0 
-1.0 4:10.0 5:19.0 6:23.0 7:24.0 8:33.0 9:38.0 
1.0 4:7.0 5:9.0 6:14.0 7:24.0 8:25.0 9:44.0 
1.0 4:8.0 5:12.0 6:28.0 7:30.0 8:38.0 9:48.0 
-1.0 4:3.0 5:13.0 6:15.0 7:28.0 8:41.0 9:47.0 
1.0 4:5.0 5:6.0 6:21.0 7:38.0 8:42.0 9:45.0 
-1.0 4:9.0 5:11.0 6:15.0 7:34.0 8:35.0 9:42.0 
-1.0 4:5.0 5:19.0 6:27.0 7:32.0 8:44.0 9:46.0 
1.0 4:2.0 5:4.0 6:9.0 7:22.0 8:43.0 9:44.0 
-1.0 4:27.0 5:28.0 6:33.0 7:37.0 8:48.0 9:49.0 
1.0 4:1.0 5:2.0 6:13.0 7:17.0 8:24.0 9:39.0 
1.0 4:3.0 5:10.0 6:13.0 7:22.0 8:34.0 9:43.0 
1.0 4:7.0 5:9.0 6:23.0 7:25.0 8:27.0 9:41.0 
1.0 4:9.0 5:12.0 6:20.0 7:28.0 8:33.0 9:46.0 
-1.0 4:4.0 5:11.0 6:12.0 7:25.0 8:42.0 9:43.0 
-1.0 4:12.0 5:19.0 6:22.0 7:36.0 8:40.0 9:46.0 
1.0 4:3.0 5:10.0 6:14.0 7:36.0 8:38.0 9:40.0 
-1.0 4:6.0 5:24.0 6:27.0 7:34.0 8:36.0 9:42.0 
1.0 4:4.0 5:7.0 6:10.0 7:22.0 8:25.0 9:33.0 
-1.0 4:12.0 5:13.0 6:15.0 7:31.0 8:47.0 9:49.0 
1.0 4:8.0 5:9.0 6:20.0 7:26.0 8:28.0 9:29.0 
1.0 4:3.0 5:5.0 6:8.0 7:15.0 8:33.0 9:35.0 
-1.0 4:27.0 5:28.0 6:35.0 7:40.0 8:43.0 9:48.0 
1.0 4:7.0 5:8.0 6:19.0 7:23.0 8:30.0 9:46.0 
-1.0 4:12.0 5:13.0 6:33.0 7:43.0 8:46.0 9:49.0 
-1.0 4:18.0 5:32.0 6:40.0 7:41.0 8:47.0 9:49.0 
-1.0 4:15.0 5:19.0 6:30.0 7:31.0 8:34.0 9:37.0 
-1.0 4:30.0 5:31.0 6:32.0 7:34.0 8:36.0 9:49.0 
-1.0 4:12.0 5:13.0 6:25.0 7:30.0 8:37.0 9:41.0 
-1.0 4:3.0 5:11.0 6:14.0 7:20.0 8:41.0 9:47.0 
1.0 4:2.0 5:5.0 6:9.0 7:20.0 8:25.0 9:32.0 
-1.0 4:11.0 5:18.0 6:27.0 7:29.0 8:32.0 9:39.0 
-1.0 4:16.0 5:18.0 6:21.0 7:36.0 8:46.0 9:48.0 
1.0 4:1.0 5:10.0 6:16.0 7:25.0 8:36.0 9:38.0 
1.0 4:4.0 5:14.0 6:24.0 7:26.0 8:34.0 9:43.0 
1.0 4:9.0 5:12.0 6:19.0 7:29.0 8:38.0 9:47.0 
1.0 4:3.0 5:8.0 6:18.0 7:34.0 8:44.0 9:49.0 
1.0 4:13.0 5:14.0 6:16.0 7:28.0 8:34.0 9:42.0 
-0.33025166066954387 4:4.0 5:17.0 6:20.0 7:31.0 8:36.0 9:40.0 
-1.0 4:24.0 5:26.0 6:28.0 7:37.0 8:43.0 9:48.0 
1.0 4:3.0 5:6.0 6:26.0 7:32.0 8:43.0 9:49.0 
-1.0 4:2.0 5:15.0 6:27.0 7:30.0 8:34.0 9:36.0 
-1.0 4:1.0 5:35.0 6:38.0 7:40.0 8:47.0 9:48.0 
1.0 4:5.0 5:8.0 6:13.0 7:22.0 8:35.0 9:40.0 
1.0 4:10.0 5:14.0 6:18.0 7:41.0 8:42.0 9:47.0 
1.0 4:3.0 5:10.0 6:12.0 7:20.0 8:26.0 9:27.0 
-1.0 4:9.0 5:20.0 6:22.0 7:23.0 8:26.0 9:44.0 
1.0 4:3.0 5:7.0 6:12.0 7:25.0 8:28.0 9:37.0 
1.0 4:5.0 5:8.0 6:20.0 7:26.0 8:31.0 9:36.0 
1.0 4:1.0 5:4.0 6:7.0 7:25.0 8:30.0 9:45.0 
-1.0 4:13.0 5:32.0 6:35.0 7:39.0 8:46.0 9:48.0 
-1.0 4:11.0 5:13.0 6:17.0 7:18.0 8:20.0 9:45.0 
1.0 4:4.0 5:6.0 6:11.0 7:45.0 8:46.0 9:47.0 
1.0 4:3.0 5:9.0 6:11.0 7:13.0 8:27.0 9:45.0 
-1.0 4:6.0 5:11.0 6:21.0 7:26.0 8:34.0 9:41.0 
1.0 4:1.0 5:14.0 6:17.0 7:19.0 8:40.0 9:42.0 
-1.0 4:13.0 5:19.0 6:29.0 7:30.0 8:33.0 9:49.0 
-1.0 4:7.0 5:11.0 6:15.0 7:30.0 8:31.0 9:45.0 
1.0 4:1.0 5:7.0 6:19.0 7:31.0 8:35.0 9:44.0 
-0.9374189006012098 4:7.0 5:13.0 6:18.0 7:23.0 8:26.0 9:27.0 
-1.0 4:10.0 5:20.0 6:24.0 7:32.0 8:37.0 9:47.0 
1.0 4:1.0 5:8.0 6:15.0 7:36.0 8:38.0 9:49.0 
1.0 4:2.0 5:3.0 6:23.0 7:29.0 8:34.0 9:36.0 
-1.0 4:20.0 5:28.0 6:32.0 7:36.0 8:42.0 9:46.0 
1.0 4:9.0 5:10.0 6:14.0 7:15.0 8:19.0 9:29.0 
-1.0 4:2.0 5:13.0 6:21.0 7:22.0 8:40.0 9:44.0 
0.49903267161166753 4:2.0 5:16.0 6:20.0 7:23.0 8:33.0 9:43.0 
-1.0 4:10.0 5:15.0 6:24.0 7:29.0 8:35.0 9:38.0 
-1.0 4:10.0 5:11.0 6:16.0 7:19.0 8:28.0 9:40.0 
-1.0 4:2.0 5:20.0 6:29.0 7:33.0 8:40.0 9:44.0 
1.0 4:4.0 5:5.0 6:17.0 7:30.0 8:36.0 9:38.0 
-1.0 4:5.0 5:15.0 6:27.0 7:35.0 8:38.0 9:47.0 
1.0 4:3.0 5:12.0 6:14.0 7:16.0 8:29.0 9:38.0 
1.0 4:1.0 5:10.0 6:13.0 7:23.0 8:41.0 9:43.0 
-1.0 4:5.0 5:11.0 6:26.0 7:28.0 8:35.0 9:46.0 
-1.0 4:4.0 5:13.0 6:23.0 7:24.0 8:37.0 9:47.0 
-1.0 4:2.0 5:11.0 6:12.0 7:29.0 8:40.0 9:42.0 
1.0 4:9.0 5:12.0 6:16.0 7:24.0 8:25.0 9:38.0 
1.0 4:1.0 5:6.0 6:7.0 7:8.0 8:22.0 9:46.0 
1.0 4:2.0 5:7.0 6:13.0 7:17.0 8:27.0 9:41.0 
1.0 4:1.0 5:5.0 6:8.0 7:11.0 8:29.0 9:33.0 
1.0 4:5.0 5:7.0 6:13.0 7:33.0 8:37.0 9:39.0 
1.0 4:3.0 5:5.0 6:10.0 7:11.0 8:35.0 9:45.0 
1.0 4:2.0 5:12.0 6:23.0 7:26.0 8:27.0 9:31.0 
-1.0 4:6.0 5:11.0 6:19.0 7:21.0 8:39.0 9:49.0 
-1.0 4:8.0 5:15.0 6:39.0 7:44.0 8:45.0 9:49.0 
1.0 4:1.0 5:3.0 6:8.0 7:12.0 8:32.0 9:47.0 
1.0 4:5.0 5:6.0 6:11.0 7:16.0 8:24.0 9:40.0 
1.0 4:4.0 5:9.0 6:15.0 7:27.0 8:28.0 9:46.0 
-1.0 4:10.0 5:15.0 6:35.0 7:42.0 8:44.0 9:47.0 
-1.0 4:7.0 5:13.0 6:18.0 7:21.0 8:23.0 9:24.0 
1.0 4:4.0 5:5.0 6:9.0 7:12.0 8:33.0 9:36.0 
1.0 4:4.0 5:6.0 6:22.0 7:24.0 8:31.0 9:40.0 
1.0 4:3.0 5:4.0 6:16.0 7:35.0 8:40.0 9:44.0 
-1.0 4:4.0 5:11.0 6:18.0 7:27.0 8:28.0 9:46.0 
-1.0 4:20.0 5:25.0 6:32.0 7:39.0 8:40.0 9:44.0 
-1.0 4:17.0 5:19.0 6:21.0 7:33.0 8:34.0 9:46.0 
-1.0 4:3.0 5:15.0 6:22.0 7:31.0 8:43.0 9:47.0 
-1.0 4:10.0 5:15.0 6:29.0 7:30.0 8:44.0 9:45.0 
0.718162996358731 4:10.0 5:16.0 6:20.0 7:26.0 8:34.0 9:48.0 
1.0 4:5.0 5:6.0 6:15.0 7:24.0 8:35.0 9:48.0 
0.7199108913165749 4:3.0 5:16.0 6:17.0 7:31.0 8:33.0 9:46.0 
-1.0 4:27.0 5:28.0 6:31.0 7:41.0 8:42.0 9:43.0 
-1.0 4:19.0 5:21.0 6:27.0 7:33.0 8:36.0 9:38.0 
1.0 4:4.0 5:7.0 6:18.0 7:21.0 8:41.0 9:46.0 
1.0 4:6.0 5:9.0 6:17.0 7:23.0 8:26.0 9:36.0 
1.0 4:1.0 5:3.0 6:15.0 7:19.0 8:36.0 9:37.0 
1.0 4:5.0 5:10.0 6:11.0 7:21.0 8:24.0 9:43.0 
1.0 4:4.0 5:6.0 6:21.0 7:22.0 8:42.0 9:43.0 
-1.0 4:8.0 5:15.0 6:17.0 7:29.0 8:36.0 9:44.0 
-1.0 4:16.0 5:21.0 6:26.0 7:28.0 8:45.0 9:46.0 
1.0 4:1.0 5:3.0 6:23.0 7:26.0 8:35.0 9:38.0 
-1.0 4:17.0 5:23.0 6:24.0 7:40.0 8:45.0 9:48.0 
1.0 4:3.0 5:8.0 6:15.0 7:20.0 8:26.0 9:45.0 
1.0 4:5.0 5:7.0 6:11.0 7:12.0 8:33.0 9:39.0 
-1.0 4:12.0 5:15.0 6:33.0 7:34.0 8:38.0 9:43.0 
1.0 4:1.0 5:8.0 6:18.0 7:27.0 8:35.0 9:45.0 
1.0 4:3.0 5:8.0 6:31.0 7:42.0 8:44.0 9:48.0 
1.0 4:8.0 5:9.0 6:26.0 7:39.0 8:46.0 9:47.0 
-1.0 4:2.0 5:23.0 6:24.0 7:27.0 8:36.0 9:48.0 
-1.0 4:14.0 5:20.0 6:30.0 7:34.0 8:37.0 9:45.0 
-1.0 4:12.0 5:29.0 6:30.0 7:36.0 8:39.0 9:45.0 
-1.0 4:1.0 5:39.0 6:42.0 7:45.0 8:48.0 9:49.0 
1.0 4:7.0 5:8.0 6:17.0 7:22.0 8:24.0 9:30.0 
-1.0 4:11.0 5:13.0 6:17.0 7:21.0 8:43.0 9:49.0 
-1.0 4:18.0 5:23.0 6:27.0 7:44.0 8:46.0 9:47.0 
-1.0 4:19.0 5:20.0 6:27.0 7:29.0 8:33.0 9:45.0 
1.0 4:7.0 5:10.0 6:21.0 7:22.0 8:38.0 9:39.0 
1.0 4:6.0 5:7.0 6:8.0 7:9.0 8:20.0 9:28.0 
1.0 4:2.0 5:4.0 6:22.0 7:25.0 8:28.0 9:31.0 
1.0 4:4.0 5:9.0 6:14.0 7:21.0 8:34.0 9:45.0 
1.0 4:5.0 5:7.0 6:16.0 7:27.0 8:37.0 9:49.0 
0.20756370593821677 4:4.0 5:17.0 6:23.0 7:31.0 8:45.0 9:48.0 
-1.0 4:3.0 5:15.0 6:23.0 7:33.0 8:39.0 9:47.0 
0.9933276179381013 4:2.0 5:16.0 6:30.0 7:41.0 8:44.0 9:48.0 
-1.0 4:14.0 5:25.0 6:31.0 7:36.0 8:44.0 9:47.0 
1.0 4:4.0 5:7.0 6:23.0 7:31.0 8:33.0 9:36.0 
1.0 4:2.0 5:8.0 6:28.0 7:29.0 8:34.0 9:44.0 
1.0 4:2.0 5:12.0 6:23.0 7:35.0 8:39.0 9:49.0 
-1.0 4:2.0 5:21.0 6:23.0 7:30.0 8:34.0 9:42.0 
1.0 4:3.0 5:5.0 6:11.0 7:23.0 8:33.0 9:34.0 
1.0 4:2.0 5:3.0 6:15.0 7:23.0 8:41.0 9:46.0 
1.0 4:6.0 5:7.0 6:10.0 7:19.0 8:21.0 9:45.0 
-1.0 4:9.0 5:21.0 6:28.0 7:31.0 8:34.0 9:37.0 
-1.0 4:9.0 5:18.0 6:24.0 7:27.0 8:29.0 9:43.0 
-1.0 4:28.0 5:35.0 6:42.0 7:45.0 8:46.0 9:49.0 
-1.0 4:7.0 5:18.0 6:23.0 7:24.0 8:27.0 9:32.0 
-1.0 4:6.0 5:11.0 6:18.0 7:20.0 8:21.0 9:34.0 
-1.0 4:12.0 5:15.0 6:18.0 7:29.0 8:33.0 9:46.0 
1.0 4:11.0 5:14.0 6:19.0 7:20.0 8:21.0 9:47.0 
0.44940452517438206 4:11.0 5:16.0 6:25.0 7:35.0 8:38.0 9:41.0 
-1.0 4:14.0 5:15.0 6:25.0 7:32.0 8:41.0 9:42.0 
-1.0 4:10.0 5:15.0 6:29.0 7:32.0 8:34.0 9:40.0 
-1.0 4:17.0 5:18.0 6:25.0 7:31.0 8:42.0 9:49.0 
-1.0 4:12.0 5:26.0 6:28.0 7:31.0 8:33.0 9:45.0 
-0.09928510384911604 4:15.0 5:17.0 6:19.0 7:23.0 8:27.0 9:38.0 
-1.0 4:1.0 5:23.0 6:30.0 7:38.0 8:45.0 9:48.0 
1.0 4:3.0 5:8.0 6:15.0 7:16.0 8:20.0 9:46.0 
1.0 4:2.0 5:14.0 6:29.0 7:32.0 8:41.0 9:44.0 
-1.0 4:8.0 5:15.0 6:24.0 7:25.0 8:30.0 9:35.0 
-1.0 4:12.0 5:19.0 6:22.0 7:26.0 8:44.0 9:47.0 
1.0 4:7.0 5:10.0 6:13.0 7:19.0 8:26.0 9:29.0 
-1.0 4:7.0 5:11.0 6:12.0 7:16.0 8:30.0 9:41.0 
-1.0 4:7.0 5:13.0 6:14.0 7:16.0 8:22.0 9:48.0 
-1.0 4:9.0 5:23.0 6:29.0 7:42.0 8:43.0 9:47.0 
1.0 4:6.0 5:7.0 6:12.0 7:20.0 8:38.0 9:40.0 
-1.0 4:10.0 5:15.0 6:16.0 7:18.0 8:23.0 9:26.0 
-1.0 4:14.0 5:24.0 6:27.0 7:36.0 8:39.0 9:42.0 
-1.0 4:4.0 5:13.0 6:15.0 7:20.0 8:26.0 9:41.0 
1.0 4:9.0 5:14.0 6:17.0 7:20.0 8:44.0 9:45.0 
1.0 4:5.0 5:7.0 6:11.0 7:17.0 8:24.0 9:48.0 
-1.0 4:8.0 5:18.0 6:20.0 7:30.0 8:32.0 9:46.0 
-0.9369557618342362 4:10.0 5:17.0 6:20.0 7:41.0 8:46.0 9:48.0 
1.0 4:1.0 5:2.0 6:38.0 7:39.0 8:40.0 9:49.0 
-1.0 4:5.0 5:22.0 6:23.0 7:40.0 8:44.0 9:48.0 
1.0 4:5.0 5:8.0 6:13.0 7:16.0 8:40.0 9:49.0 
-1.0 4:16.0 5:21.0 6:24.0 7:31.0 8:35.0 9:39.0 
-1.0 4:3.0 5:22.0 6:32.0 7:40.0 8:45.0 9:48.0 
-1.0 4:14.0 5:18.0 6:22.0 7:34.0 8:36.0 9:43.0 
-1.0 4:12.0 5:30.0 6:36.0 7:37.0 8:40.0 9:48.0 
1.0 4:3.0 5:4.0 6:20.0 7:34.0 8:39.0 9:48.0 
-1.0 4:15.0 5:25.0 6:28.0 7:32.0 8:35.0 9:42.0 
1.0 4:3.0 5:4.0 6:14.0 7:18.0 8:28.0 9:31.0 
-1.0 4:10.0 5:13.0 6:15.0 7:30.0 8:34.0 9:44.0 
-1.0 4:2.0 5:18.0 6:23.0 7:35.0 8:47.0 9:48.0 
-1.0 4:12.0 5:15.0 6:23.0 7:36.0 8:43.0 9:47.0 
-1.0 4:8.0 5:24.0 6:34.0 7:38.0 8:41.0 9:42.0 
1.0 4:3.0 5:7.0 6:15.0 7:35.0 8:36.0 9:40.0 
-1.0 4:13.0 5:20.0 6:22.0 7:29.0 8:32.0 9:33.0 
1.0 4:3.0 5:5.0 6:24.0 7:27.0 8:38.0 9:46.0 
0.9280637272697673 4:12.0 5:16.0 6:19.0 7:34.0 8:41.0 9:47.0 
-1.0 4:1.0 5:18.0 6:25.0 7:26.0 8:36.0 9:39.0 
-1.0 4:1.0 5:22.0 6:28.0 7:38.0 8:47.0 9:48.0 
1.0 4:1.0 5:8.0 6:11.0 7:21.0 8:24.0 9:41.0 
1.0 4:6.0 5:8.0 6:11.0 7:25.0 8:28.0 9:45.0 
1.0 4:9.0 5:10.0 6:11.0 7:18.0 8:39.0 9:45.0 
1.0 4:1.0 5:3.0 6:7.0 7:11.0 8:38.0 9:40.0 
1.0 4:4.0 5:7.0 6:10.0 7:27.0 8:37.0 9:49.0 
-1.0 4:9.0 5:11.0 6:31.0 7:34.0 8:48.0 9:49.0 
1.0 4:2.0 5:12.0 6:20.0 7:35.0 8:41.0 9:49.0 
1.0 4:5.0 5:6.0 6:17.0 7:39.0 8:44.0 9:48.0 
1.0 4:2.0 5:7.0 6:9.0 7:18.0 8:23.0 9:38.0 
1.0 4:8.0 5:10.0 6:12.0 7:22.0 8:26.0 9:28.0 
-1.0 4:7.0 5:22.0 6:23.0 7:26.0 8:40.0 9:48.0 
-0.9226736942288645 4:6.0 5:13.0 6:19.0 7:32.0 8:43.0 9:44.0 
-1.0 4:3.0 5:19.0 6:21.0 7:41.0 8:43.0 9:47.0 
1.0 4:4.0 5:12.0 6:14.0 7:21.0 8:22.0 9:37.0 
1.0 4:1.0 5:12.0 6:22.0 7:35.0 8:42.0 9:44.0 
-1.0 4:2.0 5:22.0 6:30.0 7:33.0 8:35.0 9:42.0 
1.0 4:5.0 5:6.0 6:8.0 7:9.0 8:11.0 9:40.0 
-1.0 4:9.0 5:19.0 6:20.0 7:31.0 8:41.0 9:45.0 
1.0 4:5.0 5:8.0 6:15.0 7:16.0 8:41.0 9:46.0 
-1.0 4:19.0 5:29.0 6:32.0 7:40.0 8:43.0 9:46.0 
1.0 4:5.0 5:7.0 6:39.0 7:41.0 8:45.0 9:46.0 
0.7760724255718782 4:8.0 5:16.0 6:24.0 7:28.0 8:44.0 9:45.0 
-1.0 4:1.0 5:11.0 6:23.0 7:27.0 8:28.0 9:44.0 
1.0 4:3.0 5:7.0 6:18.0 7:26.0 8:36.0 9:42.0 
-1.0 4:11.0 5:21.0 6:33.0 7:38.0 8:40.0 9:48.0 
1.0 4:6.0 5:9.0 6:11.0 7:12.0 8:19.0 9:20.0 
1.0 4:7.0 5:8.0 6:22.0 7:36.0 8:42.0 9:46.0 
-1.0 4:14.0 5:27.0 6:37.0 7:39.0 8:43.0 9:45.0 
1.0 4:1.0 5:2.0 6:9.0 7:15.0 8:17.0 9:37.0 
-1.0 4:18.0 5:21.0 6:27.0 7:34.0 8:39.0 9:45.0 
1.0 4:6.0 5:12.0 6:17.0 7:23.0 8:29.0 9:36.0 
-1.0 4:23.0 5:27.0 6:32.0 7:37.0 8:38.0 9:45.0 
-1.0 4:9.0 5:11.0 6:21.0 7:24.0 8:39.0 9:43.0 
1.0 4:6.0 5:9.0 6:14.0 7:18.0 8:23.0 9:33.0 
-1.0 4:11.0 5:20.0 6:23.0 7:28.0 8:40.0 9:45.0 
-1.0 4:11.0 5:30.0 6:39.0 7:40.0 8:41.0 9:42.0 
-1.0 4:3.0 5:29.0 6:31.0 7:32.0 8:34.0 9:48.0 
1.0 4:5.0 5:10.0 6:12.0 7:18.0 8:25.0 9:45.0 
1.0 4:3.0 5:8.0 6:17.0 7:32.0 8:40.0 9:47.0 
1.0 4:8.0 5:14.0 6:20.0 7:26.0 8:31.0 9:49.0 
-1.0 4:33.0 5:35.0 6:36.0 7:39.0 8:48.0 9:49.0 
-1.0 4:12.0 5:15.0 6:34.0 7:44.0 8:45.0 9:47.0 
-1.0 4:7.0 5:13.0 6:14.0 7:16.0 8:21.0 9:24.0 
-1.0 4:18.0 5:23.0 6:25.0 7:26.0 8:45.0 9:48.0 
1.0 4:1.0 5:2.0 6:16.0 7:24.0 8:36.0 9:49.0 
0.6235505293986451 4:14.0 5:16.0 6:18.0 7:20.0 8:26.0 9:47.0 
1.0 4:6.0 5:10.0 6:11.0 7:16.0 8:32.0 9:36.0 
1.0 4:2.0 5:8.0 6:10.0 7:20.0 8:28.0 9:38.0 
-1.0 4:15.0 5:18.0 6:26.0 7:33.0 8:36.0 9:39.0 
-1.0 4:9.0 5:21.0 6:22.0 7:42.0 8:44.0 9:48.0 
-1.0 4:18.0 5:19.0 6:33.0 7:40.0 8:44.0 9:47.0 
1.0 4:5.0 5:6.0 6:30.0 7:32.0 8:45.0 9:46.0 
1.0 4:2.0 5:6.0 6:15.0 7:19.0 8:24.0 9:38.0 
1.0 4:4.0 5:5.0 6:10.0 7:34.0 8:37.0 9:45.0 
1.0 4:2.0 5:3.0 6:12.0 7:15.0 8:19.0 9:49.0 
0.45187901073599973 4:14.0 5:17.0 6:21.0 7:27.0 8:37.0 9:46.0 
1.0 4:2.0 5:3.0 6:7.0 7:13.0 8:32.0 9:40.0 
-1.0 4:23.0 5:31.0 6:33.0 7:38.0 8:46.0 9:49.0 
-1.0 4:2.0 5:21.0 6:36.0 7:37.0 8:45.0 9:47.0 
-1.0 4:16.0 5:22.0 6:27.0 7:29.0 8:44.0 9:46.0 
-0.039741067647644804 4:16.0 5:17.0 6:20.0 7:29.0 8:31.0 9:43.0 
-1.0 4:7.0 5:22.0 6:27.0 7:29.0 8:33.0 9:39.0 
-0.990139190208815 4:12.0 5:13.0 6:15.0 7:16.0 8:28.0 9:41.0 
-1.0 4:19.0 5:20.0 6:24.0 7:36.0 8:47.0 9:48.0 
-1.0 4:5.0 5:28.0 6:34.0 7:35.0 8:38.0 9:49.0 
-1.0 4:8.0 5:21.0 6:22.0 7:26.0 8:30.0 9:39.0 
0.5200449440656774 4:7.0 5:16.0 6:36.0 7:40.0 8:42.0 9:44.0 
1.0 4:1.0 5:12.0 6:27.0 7:33.0 8:46.0 9:49.0 
1.0 4:5.0 5:8.0 6:16.0 7:26.0 8:36.0 9:42.0 
-1.0 4:8.0 5:18.0 6:29.0 7:37.0 8:38.0 9:44.0 
-1.0 4:5.0 5:13.0 6:26.0 7:28.0 8:41.0 9:47.0 
-1.0 4:12.0 5:19.0 6:30.0 7:36.0 8:43.0 9:47.0 
1.0 4:1.0 5:12.0 6:20.0 7:28.0 8:41.0 9:43.0 
1.0 4:5.0 5:7.0 6:9.0 7:23.0 8:28.0 9:38.0 
1.0 4:6.0 5:7.0 6:19.0 7:27.0 8:38.0 9:40.0 
1.0 4:8.0 5:14.0 6:15.0 7:35.0 8:37.0 9:40.0 
1.0 4:1.0 5:8.0 6:19.0 7:26.0 8:37.0 9:44.0 
0.7021016226571721 4:4.0 5:16.0 6:21.0 7:22.0 8:31.0 9:37.0 
-1.0 4:6.0 5:11.0 6:12.0 7:31.0 8:42.0 9:44.0 
1.0 4:4.0 5:14.0 6:17.0 7:22.0 8:28.0 9:32.0 
1.0 4:1.0 5:6.0 6:10.0 7:26.0 8:31.0 9:38.0 
1.0 4:2.0 5:3.0 6:15.0 7:17.0 8:25.0 9:42.0 
-1.0 4:4.0 5:18.0 6:27.0 7:28.0 8:31.0 9:33.0 
-0.7945707264258035 4:8.0 5:13.0 6:17.0 7:32.0 8:44.0 9:48.0 
-1.0 4:12.0 5:19.0 6:28.0 7:34.0 8:36.0 9:41.0 
1.0 4:2.0 5:3.0 6:4.0 7:13.0 8:42.0 9:48.0 
-1.0 4:12.0 5:21.0 6:24.0 7:34.0 8:42.0 9:47.0 
-1.0 4:28.0 5:38.0 6:39.0 7:43.0 8:45.0 9:48.0 
1.0 4:4.0 5:10.0 6:19.0 7:24.0 8:32.0 9:35.0 
0.8097962517583022 4:13.0 5:16.0 6:17.0 7:27.0 8:42.0 9:45.0 
1.0 4:9.0 5:12.0 6:24.0 7:28.0 8:35.0 9:43.0 
-1.0 4:27.0 5:29.0 6:31.0 7:35.0 8:36.0 9:37.0 
-1.0 4:12.0 5:22.0 6:31.0 7:32.0 8:35.0 9:47.0 
-1.0 4:17.0 5:24.0 6:32.0 7:39.0 8:44.0 9:48.0 
1.0 4:6.0 5:12.0 6:14.0 7:42.0 8:46.0 9:47.0 
-1.0 4:8.0 5:32.0 6:33.0 7:36.0 8:40.0 9:47.0 
-1.0 4:15.0 5:20.0 6:22.0 7:25.0 8:27.0 9:41.0 
-1.0 4:3.0 5:20.0 6:27.0 7:29.0 8:38.0 9:44.0 
1.0 4:5.0 5:8.0 6:14.0 7:18.0 8:43.0 9:49.0 
-1.0 4:1.0 5:11.0 6:12.0 7:17.0 8:32.0 9:40.0 
-1.0 4:11.0 5:21.0 6:35.0 7:37.0 8:46.0 9:47.0 
-1.0 4:1.0 5:20.0 6:27.0 7:36.0 8:40.0 9:42.0 
1.0 4:6.0 5:10.0 6:22.0 7:30.0 8:35.0 9:49.0 
1.0 4:3.0 5:8.0 6:23.0 7:25.0 8:29.0 9:47.0 
1.0 4:6.0 5:8.0 6:18.0 7:20.0 8:40.0 9:42.0 
-1.0 4:17.0 5:20.0 6:22.0 7:35.0 8:38.0 9:48.0 
1.0 4:1.0 5:6.0 6:12.0 7:19.0 8:24.0 9:31.0 
1.0 4:7.0 5:14.0 6:15.0 7:23.0 8:35.0 9:37.0 
-1.0 4:9.0 5:13.0 6:19.0 7:32.0 8:41.0 9:49.0 
1.0 4:4.0 5:12.0 6:17.0 7:18.0 8:34.0 9:44.0 
1.0 4:3.0 5:5.0 6:8.0 7:14.0 8:24.0 9:34.0 
1.0 4:2.0 5:5.0 6:20.0 7:30.0 8:39.0 9:45.0 
1.0 4:3.0 5:5.0 6:20.0 7:30.0 8:34.0 9:47.0 
-1.0 4:15.0 5:21.0 6:23.0 7:26.0 8:28.0 9:48.0 
1.0 4:6.0 5:7.0 6:31.0 7:38.0 8:44.0 9:48.0 
1.0 4:1.0 5:4.0 6:6.0 7:24.0 8:26.0 9:29.0 
1.0 4:5.0 5:10.0 6:29.0 7:33.0 8:36.0 9:46.0 
-1.0 4:3.0 5:29.0 6:33.0 7:36.0 8:39.0 9:45.0 
-1.0 4:8.0 5:11.0 6:21.0 7:23.0 8:42.0 9:44.0 
1.0 4:9.0 5:10.0 6:12.0 7:19.0 8:24.0 9:31.0 
-1.0 4:6.0 5:18.0 6:26.0 7:29.0 8:45.0 9:49.0 
1.0 4:7.0 5:9.0 6:18.0 7:22.0 8:28.0 9:38.0 
-1.0 4:4.0 5:24.0 6:28.0 7:36.0 8:37.0 9:45.0 
-1.0 4:4.0 5:19.0 6:22.0 7:24.0 8:32.0 9:33.0 
-1.0 4:6.0 5:11.0 6:13.0 7:25.0 8:31.0 9:47.0 
1.0 4:2.0 5:5.0 6:9.0 7:13.0 8:22.0 9:38.0 
1.0 4:2.0 5:9.0 6:10.0 7:13.0 8:21.0 9:29.0 
1.0 4:2.0 5:7.0 6:18.0 7:20.0 8:41.0 9:48.0 
-1.0 4:3.0 5:26.0 6:31.0 7:33.0 8:45.0 9:48.0 
-1.0 4:5.0 5:15.0 6:20.0 7:25.0 8:28.0 9:33.0 
-1.0 4:20.0 5:24.0 6:27.0 7:40.0 8:44.0 9:45.0 
-1.0 4:8.0 5:22.0 6:37.0 7:40.0 8:41.0 9:44.0 
1.0 4:6.0 5:14.0 6:26.0 7:27.0 8:34.0 9:46.0 
-1.0 4:4.0 5:20.0 6:22.0 7:23.0 8:42.0 9:44.0 
1.0 4:13.0 5:14.0 6:21.0 7:24.0 8:32.0 9:35.0 
1.0 4:9.0 5:10.0 6:11.0 7:24.0 8:34.0 9:42.0 
-1.0 4:11.0 5:15.0 6:16.0 7:17.0 8:31.0 9:40.0 
1.0 4:4.0 5:8.0 6:17.0 7:23.0 8:34.0 9:47.0 
-1.0 4:9.0 5:22.0 6:34.0 7:35.0 8:46.0 9:47.0 
-1.0 4:20.0 5:36.0 6:42.0 7:43.0 8:45.0 9:48.0 
-1.0 4:6.0 5:22.0 6:23.0 7:41.0 8:44.0 9:49.0 
-1.0 4:15.0 5:20.0 6:29.0 7:36.0 8:38.0 9:42.0 
1.0 4:3.0 5:4.0 6:20.0 7:31.0 8:41.0 9:48.0 
0.7960826195116606 4:10.0 5:16.0 6:21.0 7:31.0 8:33.0 9:36.0 
-1.0 4:6.0 5:32.0 6:35.0 7:36.0 8:40.0 9:45.0 
1.0 4:3.0 5:6.0 6:13.0 7:29.0 8:36.0 9:38.0 
-1.0 4:7.0 5:22.0 6:28.0 7:32.0 8:34.0 9:38.0 
-1.0 4:4.0 5:26.0 6:34.0 7:38.0 8:41.0 9:46.0 
1.0 4:2.0 5:12.0 6:22.0 7:42.0 8:43.0 9:46.0 
1.0 4:6.0 5:7.0 6:24.0 7:27.0 8:28.0 9:46.0 
-1.0 4:11.0 5:22.0 6:36.0 7:37.0 8:43.0 9:48.0 
-1.0 4:1.0 5:13.0 6:16.0 7:30.0 8:33.0 9:48.0 
1.0 4:8.0 5:10.0 6:14.0 7:16.0 8:18.0 9:35.0 
1.0 4:3.0 5:5.0 6:26.0 7:27.0 8:37.0 9:39.0 
-1.0 4:1.0 5:26.0 6:33.0 7:36.0 8:45.0 9:48.0 
1.0 4:10.0 5:14.0 6:15.0 7:39.0 8:43.0 9:49.0 
-1.0 4:24.0 5:29.0 6:34.0 7:36.0 8:41.0 9:42.0 
0.7432372505060583 4:6.0 5:16.0 6:29.0 7:30.0 8:33.0 9:36.0 
-1.0 4:14.0 5:21.0 6:27.0 7:34.0 8:37.0 9:38.0 
1.0 4:1.0 5:4.0 6:6.0 7:13.0 8:20.0 9:44.0 
1.0 4:2.0 5:5.0 6:16.0 7:25.0 8:30.0 9:40.0 
-1.0 4:23.0 5:27.0 6:35.0 7:40.0 8:43.0 9:44.0 
1.0 4:1.0 5:14.0 6:21.0 7:23.0 8:29.0 9:46.0 
-1.0 4:4.0 5:15.0 6:22.0 7:27.0 8:29.0 9:31.0 
1.0 4:1.0 5:8.0 6:13.0 7:32.0 8:38.0 9:43.0 
-1.0 4:4.0 5:18.0 6:23.0 7:25.0 8:39.0 9:43.0 
1.0 4:6.0 5:7.0 6:9.0 7:15.0 8:17.0 9:48.0 
0.021587516754243762 4:7.0 5:17.0 6:30.0 7:33.0 8:42.0 9:49.0 
-1.0 4:9.0 5:25.0 6:36.0 7:41.0 8:44.0 9:45.0 
-1.0 4:17.0 5:18.0 6:21.0 7:25.0 8:35.0 9:47.0 
-1.0 4:2.0 5:24.0 6:28.0 7:30.0 8:32.0 9:40.0 
1.0 4:3.0 5:5.0 6:13.0 7:33.0 8:34.0 9:44.0 
-1.0 4:10.0 5:15.0 6:16.0 7:38.0 8:44.0 9:48.0 
-1.0 4:23.0 5:31.0 6:41.0 7:45.0 8:46.0 9:49.0 
1.0 4:5.0 5:14.0 6:20.0 7:28.0 8:33.0 9:46.0 
1.0 4:4.0 5:12.0 6:19.0 7:21.0 8:26.0 9:41.0 
-1.0 4:11.0 5:15.0 6:19.0 7:25.0 8:34.0 9:39.0 
1.0 4:1.0 5:2.0 6:16.0 7:21.0 8:47.0 9:49.0 
-1.0 4:6.0 5:29.0 6:31.0 7:33.0 8:40.0 9:43.0 
1.0 4:1.0 5:5.0 6:14.0 7:27.0 8:30.0 9:41.0 
-1.0 4:15.0 5:18.0 6:24.0 7:28.0 8:29.0 9:49.0 
1.0 4:1.0 5:4.0 6:11.0 7:16.0 8:26.0 9:46.0 
1.0 4:9.0 5:14.0 6:24.0 7:43.0 8:45.0 9:46.0 
1.0 4:1.0 5:2.0 6:7.0 7:10.0 8:33.0 9:38.0 
1.0 4:2.0 5:8.0 6:11.0 7:26.0 8:27.0 9:33.0 
-1.0 4:26.0 5:30.0 6:34.0 7:35.0 8:38.0 9:41.0 
-1.0 4:20.0 5:26.0 6:27.0 7:32.0 8:36.0 9:46.0 
-1.0 4:11.0 5:19.0 6:27.0 7:28.0 8:30.0 9:39.0 
1.0 4:1.0 5:9.0 6:12.0 7:29.0 8:30.0 9:42.0 
1.0 4:2.0 5:10.0 6:17.0 7:19.0 8:44.0 9:47.0 
-1.0 4:18.0 5:25.0 6:26.0 7:41.0 8:45.0 9:49.0 
1.0 4:1.0 5:10.0 6:11.0 7:19.0 8:21.0 9:41.0 
-1.0 4:10.0 5:20.0 6:30.0 7:38.0 8:41.0 9:44.0 
-1.0 4:9.0 5:28.0 6:35.0 7:36.0 8:48.0 9:49.0 
1.0 4:1.0 5:2.0 6:32.0 7:33.0 8:38.0 9:49.0 
1.0 4:8.0 5:9.0 6:13.0 7:22.0 8:35.0 9:36.0 
-1.0 4:12.0 5:21.0 6:23.0 7:24.0 8:38.0 9:46.0 
1.0 4:2.0 5:10.0 6:16.0 7:21.0 8:24.0 9:49.0 
1.0 4:11.0 5:14.0 6:21.0 7:24.0 8:25.0 9:43.0 
-1.0 4:5.0 5:24.0 6:26.0 7:28.0 8:33.0 9:45.0 
-1.0 4:1.0 5:20.0 6:24.0 7:33.0 8:37.0 9:43.0 
-0.33375123175449534 4:9.0 5:17.0 6:32.0 7:41.0 8:42.0 9:44.0 
-1.0 4:21.0 5:28.0 6:34.0 7:35.0 8:48.0 9:49.0 
1.0 4:2.0 5:7.0 6:24.0 7:37.0 8:38.0 9:40.0 
-1.0 4:8.0 5:11.0 6:19.0 7:42.0 8:46.0 9:47.0 
1.0 4:4.0 5:8.0 6:16.0 7:25.0 8:33.0 9:36.0 
-1.0 4:8.0 5:23.0 6:25.0 7:28.0 8:34.0 9:39.0 
1.0 4:3.0 5:4.0 6:5.0 7:12.0 8:23.0 9:33.0 
1.0 4:1.0 5:3.0 6:23.0 7:33.0 8:40.0 9:48.0 
-1.0 4:4.0 5:11.0 6:12.0 7:14.0 8:25.0 9:37.0 
-0.14061607955365277 4:16.0 5:17.0 6:19.0 7:22.0 8:40.0 9:43.0 
-1.0 4:21.0 5:23.0 6:24.0 7:33.0 8:38.0 9:44.0 
1.0 4:7.0 5:8.0 6:11.0 7:19.0 8:25.0 9:46.0 
-1.0 4:2.0 5:11.0 6:14.0 7:22.0 8:41.0 9:42.0 
1.0 4:11.0 5:12.0 6:16.0 7:29.0 8:38.0 9:43.0 
-1.0 4:3.0 5:20.0 6:24.0 7:26.0 8:37.0 9:47.0 
1.0 4:2.0 5:5.0 6:12.0 7:22.0 8:44.0 9:48.0 
-1.0 4:3.0 5:15.0 6:17.0 7:20.0 8:27.0 9:43.0 
-1.0 4:5.0 5:15.0 6:30.0 7:42.0 8:46.0 9:49.0 
1.0 4:2.0 5:3.0 6:9.0 7:17.0 8:29.0 9:40.0 
-1.0 4:19.0 5:21.0 6:29.0 7:32.0 8:34.0 9:47.0 
-1.0 4:8.0 5:23.0 6:25.0 7:32.0 8:33.0 9:48.0 
-1.0 4:14.0 5:20.0 6:28.0 7:31.0 8:44.0 9:49.0 
1.0 4:4.0 5:12.0 6:28.0 7:31.0 8:39.0 9:46.0 
1.0 4:2.0 5:8.0 6:32.0 7:36.0 8:47.0 9:49.0 
-0.4050942592576796 4:13.0 5:17.0 6:19.0 7:22.0 8:28.0 9:46.0 
1.0 4:5.0 5:6.0 6:24.0 7:29.0 8:35.0 9:39.0 
1.0 4:2.0 5:7.0 6:12.0 7:21.0 8:25.0 9:47.0 
1.0 4:2.0 5:4.0 6:15.0 7:29.0 8:32.0 9:40.0 
-1.0 4:13.0 5:21.0 6:22.0 7:26.0 8:35.0 9:40.0 
-1.0 4:6.0 5:26.0 6:41.0 7:42.0 8:47.0 9:48.0 
-1.0 4:13.0 5:22.0 6:23.0 7:31.0 8:35.0 9:45.0 
-1.0 4:7.0 5:19.0 6:21.0 7:29.0 8:31.0 9:36.0 
-1.0 4:5.0 5:19.0 6:22.0 7:29.0 8:31.0 9:32.0 
0.5341713224327485 4:8.0 5:16.0 6:18.0 7:26.0 8:28.0 9:37.0 
1.0 4:2.0 5:10.0 6:16.0 7:36.0 8:40.0 9:45.0 
1.0 4:2.0 5:12.0 6:18.0 7:26.0 8:35.0 9:36.0 
-1.0 4:18.0 5:22.0 6:24.0 7:30.0 8:43.0 9:48.0 
1.0 4:7.0 5:12.0 6:20.0 7:22.0 8:26.0 9:35.0 
1.0 4:3.0 5:10.0 6:17.0 7:18.0 8:19.0 9:23.0 
1.0 4:3.0 5:4.0 6:6.0 7:23.0 8:33.0 9:44.0 
1.0 4:6.0 5:12.0 6:14.0 7:20.0 8:21.0 9:26.0 
1.0 4:3.0 5:5.0 6:16.0 7:20.0 8:27.0 9:45.0 
1.0 4:4.0 5:9.0 6:24.0 7:41.0 8:47.0 9:48.0 
1.0 4:9.0 5:12.0 6:13.0 7:26.0 8:35.0 9:43.0 
-1.0 4:21.0 5:26.0 6:32.0 7:34.0 8:36.0 9:39.0 
1.0 4:4.0 5:8.0 6:30.0 7:43.0 8:46.0 9:48.0 
1.0 4:3.0 5:8.0 6:15.0 7:17.0 8:29.0 9:33.0 
1.0 4:9.0 5:12.0 6:17.0 7:20.0 8:21.0 9:37.0 
-1.0 4:20.0 5:26.0 6:35.0 7:37.0 8:46.0 9:48.0 
1.0 4:3.0 5:5.0 6:13.0 7:16.0 8:44.0 9:48.0 
1.0 4:8.0 5:9.0 6:15.0 7:23.0 8:40.0 9:48.0 
-1.0 4:2.0 5:18.0 6:22.0 7:25.0 8:37.0 9:39.0 
1.0 4:10.0 5:12.0 6:16.0 7:23.0 8:41.0 9:42.0 
1.0 4:2.0 5:8.0 6:11.0 7:15.0 8:24.0 9:27.0 
1.0 4:2.0 5:4.0 6:16.0 7:20.0 8:25.0 9:46.0 
1.0 4:1.0 5:2.0 6:10.0 7:19.0 8:22.0 9:44.0 
-1.0 4:4.0 5:18.0 6:23.0 7:32.0 8:34.0 9:47.0 
-1.0 4:13.0 5:20.0 6:23.0 7:34.0 8:38.0 9:46.0 
1.0 4:4.0 5:6.0 6:7.0 7:11.0 8:12.0 9:40.0 
-1.0 4:1.0 5:15.0 6:21.0 7:22.0 8:38.0 9:39.0 
1.0 4:1.0 5:12.0 6:17.0 7:22.0 8:29.0 9:44.0 
-1.0 4:3.0 5:11.0 6:15.0 7:21.0 8:23.0 9:33.0 
-1.0 4:2.0 5:15.0 6:25.0 7:27.0 8:38.0 9:46.0 
-1.0 4:2.0 5:15.0 6:33.0 7:36.0 8:42.0 9:49.0 
0.9101580491815731 4:4.0 5:16.0 6:18.0 7:25.0 8:36.0 9:40.0 
-1.0 4:6.0 5:15.0 6:22.0 7:23.0 8:41.0 9:43.0 
-1.0 4:17.0 5:29.0 6:36.0 7:39.0 8:46.0 9:49.0 
1.0 4:10.0 5:14.0 6:18.0 7:27.0 8:31.0 9:48.0 
0.6076983022541318 4:3.0 5:16.0 6:18.0 7:21.0 8:28.0 9:47.0 
1.0 4:2.0 5:5.0 6:16.0 7:36.0 8:41.0 9:43.0 
1.0 4:3.0 5:12.0 6:16.0 7:20.0 8:28.0 9:31.0 
1.0 4:1.0 5:8.0 6:37.0 7:39.0 8:44.0 9:45.0 
1.0 4:2.0 5:7.0 6:15.0 7:24.0 8:37.0 9:45.0 
-1.0 4:9.0 5:13.0 6:19.0 7:22.0 8:33.0 9:34.0 
-1.0 4:24.0 5:25.0 6:26.0 7:30.0 8:34.0 9:39.0 
1.0 4:3.0 5:8.0 6:16.0 7:23.0 8:34.0 9:44.0 
-1.0 4:7.0 5:26.0 6:31.0 7:38.0 8:46.0 9:47.0 
0.5004085677192863 4:11.0 5:16.0 6:18.0 7:33.0 8:34.0 9:35.0 
1.0 4:6.0 5:12.0 6:14.0 7:17.0 8:30.0 9:49.0 
1.0 4:2.0 5:7.0 6:11.0 7:16.0 8:47.0 9:48.0 
-1.0 4:13.0 5:24.0 6:28.0 7:34.0 8:45.0 9:49.0 
1.0 4:3.0 5:6.0 6:12.0 7:14.0 8:25.0 9:28.0 
-1.0 4:2.0 5:18.0 6:35.0 7:42.0 8:45.0 9:47.0 
-1.0 4:15.0 5:22.0 6:25.0 7:26.0 8:42.0 9:43.0 
-1.0 4:9.0 5:11.0 6:32.0 7:36.0 8:38.0 9:40.0 
0.7069999010843898 4:13.0 5:16.0 6:17.0 7:23.0 8:27.0 9:37.0 
1.0 4:8.0 5:12.0 6:20.0 7:27.0 8:32.0 9:43.0 
1.0 4:2.0 5:7.0 6:35.0 7:36.0 8:42.0 9:45.0 
0.6302859591844298 4:3.0 5:16.0 6:26.0 7:40.0 8:41.0 9:49.0 
-1.0 4:6.0 5:15.0 6:40.0 7:41.0 8:42.0 9:44.0 
-1.0 4:22.0 5:25.0 6:35.0 7:40.0 8:45.0 9:46.0 
-1.0 4:3.0 5:11.0 6:12.0 7:19.0 8:21.0 9:29.0 
1.0 4:1.0 5:7.0 6:11.0 7:17.0 8:27.0 9:47.0 
1.0 4:4.0 5:7.0 6:12.0 7:20.0 8:40.0 9:49.0 
-1.0 4:16.0 5:23.0 6:33.0 7:36.0 8:48.0 9:49.0 
-1.0 4:2.0 5:25.0 6:27.0 7:28.0 8:31.0 9:47.0 
-1.0 4:24.0 5:33.0 6:35.0 7:40.0 8:43.0 9:49.0 
-1.0 4:23.0 5:34.0 6:43.0 7:44.0 8:47.0 9:49.0 
